token,embedding_dim_0,embedding_dim_1,embedding_dim_2,embedding_dim_3,embedding_dim_4,embedding_dim_5,embedding_dim_6,embedding_dim_7,embedding_dim_8,embedding_dim_9,embedding_dim_10,embedding_dim_11,embedding_dim_12,embedding_dim_13,embedding_dim_14,embedding_dim_15,embedding_dim_16,embedding_dim_17,embedding_dim_18,embedding_dim_19,embedding_dim_20,embedding_dim_21,embedding_dim_22,embedding_dim_23,embedding_dim_24,embedding_dim_25,embedding_dim_26,embedding_dim_27,embedding_dim_28,embedding_dim_29,embedding_dim_30,embedding_dim_31,embedding_dim_32,embedding_dim_33,embedding_dim_34,embedding_dim_35,embedding_dim_36,embedding_dim_37,embedding_dim_38,embedding_dim_39,embedding_dim_40,embedding_dim_41,embedding_dim_42,embedding_dim_43,embedding_dim_44,embedding_dim_45,embedding_dim_46,embedding_dim_47,embedding_dim_48,embedding_dim_49,embedding_dim_50,embedding_dim_51,embedding_dim_52,embedding_dim_53,embedding_dim_54,embedding_dim_55,embedding_dim_56,embedding_dim_57,embedding_dim_58,embedding_dim_59,embedding_dim_60,embedding_dim_61,embedding_dim_62,embedding_dim_63,embedding_dim_64,embedding_dim_65,embedding_dim_66,embedding_dim_67,embedding_dim_68,embedding_dim_69,embedding_dim_70,embedding_dim_71,embedding_dim_72,embedding_dim_73,embedding_dim_74,embedding_dim_75,embedding_dim_76,embedding_dim_77,embedding_dim_78,embedding_dim_79,embedding_dim_80,embedding_dim_81,embedding_dim_82,embedding_dim_83,embedding_dim_84,embedding_dim_85,embedding_dim_86,embedding_dim_87,embedding_dim_88,embedding_dim_89,embedding_dim_90,embedding_dim_91,embedding_dim_92,embedding_dim_93,embedding_dim_94,embedding_dim_95,embedding_dim_96,embedding_dim_97,embedding_dim_98,embedding_dim_99,embedding_dim_100,embedding_dim_101,embedding_dim_102,embedding_dim_103,embedding_dim_104,embedding_dim_105,embedding_dim_106,embedding_dim_107,embedding_dim_108,embedding_dim_109,embedding_dim_110,embedding_dim_111,embedding_dim_112,embedding_dim_113,embedding_dim_114,embedding_dim_115,embedding_dim_116,embedding_dim_117,embedding_dim_118,embedding_dim_119,embedding_dim_120,embedding_dim_121,embedding_dim_122,embedding_dim_123,embedding_dim_124,embedding_dim_125,embedding_dim_126,embedding_dim_127,embedding_dim_128,embedding_dim_129,embedding_dim_130,embedding_dim_131,embedding_dim_132,embedding_dim_133,embedding_dim_134,embedding_dim_135,embedding_dim_136,embedding_dim_137,embedding_dim_138,embedding_dim_139,embedding_dim_140,embedding_dim_141,embedding_dim_142,embedding_dim_143,embedding_dim_144,embedding_dim_145,embedding_dim_146,embedding_dim_147,embedding_dim_148,embedding_dim_149,embedding_dim_150,embedding_dim_151,embedding_dim_152,embedding_dim_153,embedding_dim_154,embedding_dim_155,embedding_dim_156,embedding_dim_157,embedding_dim_158,embedding_dim_159,embedding_dim_160,embedding_dim_161,embedding_dim_162,embedding_dim_163,embedding_dim_164,embedding_dim_165,embedding_dim_166,embedding_dim_167,embedding_dim_168,embedding_dim_169,embedding_dim_170,embedding_dim_171,embedding_dim_172,embedding_dim_173,embedding_dim_174,embedding_dim_175,embedding_dim_176,embedding_dim_177,embedding_dim_178,embedding_dim_179,embedding_dim_180,embedding_dim_181,embedding_dim_182,embedding_dim_183,embedding_dim_184,embedding_dim_185,embedding_dim_186,embedding_dim_187,embedding_dim_188,embedding_dim_189,embedding_dim_190,embedding_dim_191,embedding_dim_192,embedding_dim_193,embedding_dim_194,embedding_dim_195,embedding_dim_196,embedding_dim_197,embedding_dim_198,embedding_dim_199,embedding_dim_200,embedding_dim_201,embedding_dim_202,embedding_dim_203,embedding_dim_204,embedding_dim_205,embedding_dim_206,embedding_dim_207,embedding_dim_208,embedding_dim_209,embedding_dim_210,embedding_dim_211,embedding_dim_212,embedding_dim_213,embedding_dim_214,embedding_dim_215,embedding_dim_216,embedding_dim_217,embedding_dim_218,embedding_dim_219,embedding_dim_220,embedding_dim_221,embedding_dim_222,embedding_dim_223,embedding_dim_224,embedding_dim_225,embedding_dim_226,embedding_dim_227,embedding_dim_228,embedding_dim_229,embedding_dim_230,embedding_dim_231,embedding_dim_232,embedding_dim_233,embedding_dim_234,embedding_dim_235,embedding_dim_236,embedding_dim_237,embedding_dim_238,embedding_dim_239,embedding_dim_240,embedding_dim_241,embedding_dim_242,embedding_dim_243,embedding_dim_244,embedding_dim_245,embedding_dim_246,embedding_dim_247,embedding_dim_248,embedding_dim_249,embedding_dim_250,embedding_dim_251,embedding_dim_252,embedding_dim_253,embedding_dim_254,embedding_dim_255,embedding_dim_256,embedding_dim_257,embedding_dim_258,embedding_dim_259,embedding_dim_260,embedding_dim_261,embedding_dim_262,embedding_dim_263,embedding_dim_264,embedding_dim_265,embedding_dim_266,embedding_dim_267,embedding_dim_268,embedding_dim_269,embedding_dim_270,embedding_dim_271,embedding_dim_272,embedding_dim_273,embedding_dim_274,embedding_dim_275,embedding_dim_276,embedding_dim_277,embedding_dim_278,embedding_dim_279,embedding_dim_280,embedding_dim_281,embedding_dim_282,embedding_dim_283,embedding_dim_284,embedding_dim_285,embedding_dim_286,embedding_dim_287,embedding_dim_288,embedding_dim_289,embedding_dim_290,embedding_dim_291,embedding_dim_292,embedding_dim_293,embedding_dim_294,embedding_dim_295,embedding_dim_296,embedding_dim_297,embedding_dim_298,embedding_dim_299,embedding_dim_300,embedding_dim_301,embedding_dim_302,embedding_dim_303,embedding_dim_304,embedding_dim_305,embedding_dim_306,embedding_dim_307,embedding_dim_308,embedding_dim_309,embedding_dim_310,embedding_dim_311,embedding_dim_312,embedding_dim_313,embedding_dim_314,embedding_dim_315,embedding_dim_316,embedding_dim_317,embedding_dim_318,embedding_dim_319,embedding_dim_320,embedding_dim_321,embedding_dim_322,embedding_dim_323,embedding_dim_324,embedding_dim_325,embedding_dim_326,embedding_dim_327,embedding_dim_328,embedding_dim_329,embedding_dim_330,embedding_dim_331,embedding_dim_332,embedding_dim_333,embedding_dim_334,embedding_dim_335,embedding_dim_336,embedding_dim_337,embedding_dim_338,embedding_dim_339,embedding_dim_340,embedding_dim_341,embedding_dim_342,embedding_dim_343,embedding_dim_344,embedding_dim_345,embedding_dim_346,embedding_dim_347,embedding_dim_348,embedding_dim_349,embedding_dim_350,embedding_dim_351,embedding_dim_352,embedding_dim_353,embedding_dim_354,embedding_dim_355,embedding_dim_356,embedding_dim_357,embedding_dim_358,embedding_dim_359,embedding_dim_360,embedding_dim_361,embedding_dim_362,embedding_dim_363,embedding_dim_364,embedding_dim_365,embedding_dim_366,embedding_dim_367,embedding_dim_368,embedding_dim_369,embedding_dim_370,embedding_dim_371,embedding_dim_372,embedding_dim_373,embedding_dim_374,embedding_dim_375,embedding_dim_376,embedding_dim_377,embedding_dim_378,embedding_dim_379,embedding_dim_380,embedding_dim_381,embedding_dim_382,embedding_dim_383,embedding_dim_384,embedding_dim_385,embedding_dim_386,embedding_dim_387,embedding_dim_388,embedding_dim_389,embedding_dim_390,embedding_dim_391,embedding_dim_392,embedding_dim_393,embedding_dim_394,embedding_dim_395,embedding_dim_396,embedding_dim_397,embedding_dim_398,embedding_dim_399,embedding_dim_400,embedding_dim_401,embedding_dim_402,embedding_dim_403,embedding_dim_404,embedding_dim_405,embedding_dim_406,embedding_dim_407,embedding_dim_408,embedding_dim_409,embedding_dim_410,embedding_dim_411,embedding_dim_412,embedding_dim_413,embedding_dim_414,embedding_dim_415,embedding_dim_416,embedding_dim_417,embedding_dim_418,embedding_dim_419,embedding_dim_420,embedding_dim_421,embedding_dim_422,embedding_dim_423,embedding_dim_424,embedding_dim_425,embedding_dim_426,embedding_dim_427,embedding_dim_428,embedding_dim_429,embedding_dim_430,embedding_dim_431,embedding_dim_432,embedding_dim_433,embedding_dim_434,embedding_dim_435,embedding_dim_436,embedding_dim_437,embedding_dim_438,embedding_dim_439,embedding_dim_440,embedding_dim_441,embedding_dim_442,embedding_dim_443,embedding_dim_444,embedding_dim_445,embedding_dim_446,embedding_dim_447,embedding_dim_448,embedding_dim_449,embedding_dim_450,embedding_dim_451,embedding_dim_452,embedding_dim_453,embedding_dim_454,embedding_dim_455,embedding_dim_456,embedding_dim_457,embedding_dim_458,embedding_dim_459,embedding_dim_460,embedding_dim_461,embedding_dim_462,embedding_dim_463,embedding_dim_464,embedding_dim_465,embedding_dim_466,embedding_dim_467,embedding_dim_468,embedding_dim_469,embedding_dim_470,embedding_dim_471,embedding_dim_472,embedding_dim_473,embedding_dim_474,embedding_dim_475,embedding_dim_476,embedding_dim_477,embedding_dim_478,embedding_dim_479,embedding_dim_480,embedding_dim_481,embedding_dim_482,embedding_dim_483,embedding_dim_484,embedding_dim_485,embedding_dim_486,embedding_dim_487,embedding_dim_488,embedding_dim_489,embedding_dim_490,embedding_dim_491,embedding_dim_492,embedding_dim_493,embedding_dim_494,embedding_dim_495,embedding_dim_496,embedding_dim_497,embedding_dim_498,embedding_dim_499,embedding_dim_500,embedding_dim_501,embedding_dim_502,embedding_dim_503,embedding_dim_504,embedding_dim_505,embedding_dim_506,embedding_dim_507,embedding_dim_508,embedding_dim_509,embedding_dim_510,embedding_dim_511,embedding_dim_512,embedding_dim_513,embedding_dim_514,embedding_dim_515,embedding_dim_516,embedding_dim_517,embedding_dim_518,embedding_dim_519,embedding_dim_520,embedding_dim_521,embedding_dim_522,embedding_dim_523,embedding_dim_524,embedding_dim_525,embedding_dim_526,embedding_dim_527,embedding_dim_528,embedding_dim_529,embedding_dim_530,embedding_dim_531,embedding_dim_532,embedding_dim_533,embedding_dim_534,embedding_dim_535,embedding_dim_536,embedding_dim_537,embedding_dim_538,embedding_dim_539,embedding_dim_540,embedding_dim_541,embedding_dim_542,embedding_dim_543,embedding_dim_544,embedding_dim_545,embedding_dim_546,embedding_dim_547,embedding_dim_548,embedding_dim_549,embedding_dim_550,embedding_dim_551,embedding_dim_552,embedding_dim_553,embedding_dim_554,embedding_dim_555,embedding_dim_556,embedding_dim_557,embedding_dim_558,embedding_dim_559,embedding_dim_560,embedding_dim_561,embedding_dim_562,embedding_dim_563,embedding_dim_564,embedding_dim_565,embedding_dim_566,embedding_dim_567,embedding_dim_568,embedding_dim_569,embedding_dim_570,embedding_dim_571,embedding_dim_572,embedding_dim_573,embedding_dim_574,embedding_dim_575,embedding_dim_576,embedding_dim_577,embedding_dim_578,embedding_dim_579,embedding_dim_580,embedding_dim_581,embedding_dim_582,embedding_dim_583,embedding_dim_584,embedding_dim_585,embedding_dim_586,embedding_dim_587,embedding_dim_588,embedding_dim_589,embedding_dim_590,embedding_dim_591,embedding_dim_592,embedding_dim_593,embedding_dim_594,embedding_dim_595,embedding_dim_596,embedding_dim_597,embedding_dim_598,embedding_dim_599,embedding_dim_600,embedding_dim_601,embedding_dim_602,embedding_dim_603,embedding_dim_604,embedding_dim_605,embedding_dim_606,embedding_dim_607,embedding_dim_608,embedding_dim_609,embedding_dim_610,embedding_dim_611,embedding_dim_612,embedding_dim_613,embedding_dim_614,embedding_dim_615,embedding_dim_616,embedding_dim_617,embedding_dim_618,embedding_dim_619,embedding_dim_620,embedding_dim_621,embedding_dim_622,embedding_dim_623,embedding_dim_624,embedding_dim_625,embedding_dim_626,embedding_dim_627,embedding_dim_628,embedding_dim_629,embedding_dim_630,embedding_dim_631,embedding_dim_632,embedding_dim_633,embedding_dim_634,embedding_dim_635,embedding_dim_636,embedding_dim_637,embedding_dim_638,embedding_dim_639,embedding_dim_640,embedding_dim_641,embedding_dim_642,embedding_dim_643,embedding_dim_644,embedding_dim_645,embedding_dim_646,embedding_dim_647,embedding_dim_648,embedding_dim_649,embedding_dim_650,embedding_dim_651,embedding_dim_652,embedding_dim_653,embedding_dim_654,embedding_dim_655,embedding_dim_656,embedding_dim_657,embedding_dim_658,embedding_dim_659,embedding_dim_660,embedding_dim_661,embedding_dim_662,embedding_dim_663,embedding_dim_664,embedding_dim_665,embedding_dim_666,embedding_dim_667,embedding_dim_668,embedding_dim_669,embedding_dim_670,embedding_dim_671,embedding_dim_672,embedding_dim_673,embedding_dim_674,embedding_dim_675,embedding_dim_676,embedding_dim_677,embedding_dim_678,embedding_dim_679,embedding_dim_680,embedding_dim_681,embedding_dim_682,embedding_dim_683,embedding_dim_684,embedding_dim_685,embedding_dim_686,embedding_dim_687,embedding_dim_688,embedding_dim_689,embedding_dim_690,embedding_dim_691,embedding_dim_692,embedding_dim_693,embedding_dim_694,embedding_dim_695,embedding_dim_696,embedding_dim_697,embedding_dim_698,embedding_dim_699,embedding_dim_700,embedding_dim_701,embedding_dim_702,embedding_dim_703,embedding_dim_704,embedding_dim_705,embedding_dim_706,embedding_dim_707,embedding_dim_708,embedding_dim_709,embedding_dim_710,embedding_dim_711,embedding_dim_712,embedding_dim_713,embedding_dim_714,embedding_dim_715,embedding_dim_716,embedding_dim_717,embedding_dim_718,embedding_dim_719,embedding_dim_720,embedding_dim_721,embedding_dim_722,embedding_dim_723,embedding_dim_724,embedding_dim_725,embedding_dim_726,embedding_dim_727,embedding_dim_728,embedding_dim_729,embedding_dim_730,embedding_dim_731,embedding_dim_732,embedding_dim_733,embedding_dim_734,embedding_dim_735,embedding_dim_736,embedding_dim_737,embedding_dim_738,embedding_dim_739,embedding_dim_740,embedding_dim_741,embedding_dim_742,embedding_dim_743,embedding_dim_744,embedding_dim_745,embedding_dim_746,embedding_dim_747,embedding_dim_748,embedding_dim_749,embedding_dim_750,embedding_dim_751,embedding_dim_752,embedding_dim_753,embedding_dim_754,embedding_dim_755,embedding_dim_756,embedding_dim_757,embedding_dim_758,embedding_dim_759,embedding_dim_760,embedding_dim_761,embedding_dim_762,embedding_dim_763,embedding_dim_764,embedding_dim_765,embedding_dim_766,embedding_dim_767
the,0.009552239,0.08198426,-0.32604042,0.28364918,0.06744624,-0.5320967,-0.013484186,1.086479,-0.43936563,-0.30880973,0.0859016,-0.61694443,-0.37328988,0.33065826,-0.26008466,0.62561595,0.32331082,0.30331752,-0.07696556,0.3325621,0.66311276,0.0707327,-0.81287736,0.14654164,0.052067466,-0.30036852,-0.115846865,0.015623584,0.083293065,0.036003906,0.36504918,-0.22976083,-0.5371663,-0.5838505,0.20697364,-0.3646984,0.399868,0.5261424,-0.495896,-0.27186292,-0.6304544,-0.15683332,0.08295878,0.18958084,0.51074946,-0.3865829,-0.26739517,0.0035924634,0.3654002,0.009399758,0.10039289,-0.11393285,-0.19840151,-0.021759013,0.29058316,1.3247477,-0.05828621,-0.5334695,-0.0012217758,0.3548626,0.014229662,0.57101256,-0.106035896,-0.78116065,-0.3230772,0.53918153,-0.27584845,1.1228998,-0.5726758,-0.28116083,-0.20455408,-0.27215776,0.06073746,0.37307355,0.03352898,-0.11866107,-0.39651668,0.04633053,0.095753714,-0.68984854,-0.64349097,0.82761806,-0.14609319,0.72319144,0.64883363,0.111597545,-0.5387751,-0.19872469,-0.51795226,0.6783982,0.37780276,-0.27911556,-0.01872968,0.4919472,-0.31688234,0.3437445,0.08300201,0.107884765,-0.6001836,0.21760948,-0.041092362,0.06188221,0.53365934,0.38158,0.19599487,-0.5966204,0.15594076,-0.21177839,0.13465329,0.9408046,0.044033583,-0.4998801,0.5681278,-0.16185072,-0.53155947,0.30039182,-0.092341274,-0.4056232,-0.3081247,0.1918114,-0.014905081,-1.0096072,-0.25364572,0.77170366,-0.45525333,-0.059214044,-0.6673635,-0.23905107,-0.5392777,-0.24846342,0.56708294,0.6267112,0.0731677,-0.35116044,-0.08759442,0.91144484,0.5992707,0.11943866,-0.772911,0.12517634,-0.16228919,-0.29313123,0.4017142,0.13900374,0.6792384,0.023212807,-0.014862357,-0.12787744,0.024462337,0.21536332,-0.05366334,-0.22097966,0.010520183,-0.4682429,-0.334816,-0.01015607,-0.06957149,0.3913542,-0.13537923,0.13314761,0.056256615,-0.41691598,-0.09453601,-0.027432991,-0.0776266,0.52621174,0.084568836,0.5867994,-0.16500658,0.69059557,-0.28809282,0.50079083,1.7359301,-0.4014431,-0.21211109,-0.00786611,0.27926233,-0.009720406,-0.117884025,0.17145355,-1.7764101,0.5355898,0.09394906,-0.16366544,0.570961,-0.46100792,0.64591366,-0.6647613,-0.49387303,-0.38940218,-0.27452466,-0.30888328,-0.9236782,-0.08043676,0.9751339,-0.678672,-0.5084978,-0.6590432,-0.5405111,-0.71266603,0.21966234,-0.02165191,0.63686544,0.69195294,0.054974172,0.09865214,-0.7386547,-0.23108089,-0.3604264,0.8834798,-0.4913966,0.28370136,-0.54277015,0.30167162,-0.009807589,-0.414489,0.21007328,-0.51063985,0.068377115,-0.1749587,-0.4912858,0.07639688,-0.7115792,0.15308684,0.10081864,1.3087553,-0.20713672,0.25361466,-0.18982656,0.3771122,-0.086907685,-0.13000248,0.96140194,0.2633206,-0.6979609,-0.020775294,-0.52434117,-0.56883496,0.07296712,-0.657594,-0.22711523,0.0034375433,0.82417625,-0.2864713,-0.030000819,-0.007858396,0.48252338,0.19837742,0.21085382,-0.50462776,-0.110038415,-0.27416468,0.7635343,-1.0836239,-0.037362635,0.13701017,0.024976874,-0.52981216,-0.013892716,0.05045596,0.41830465,0.1582058,0.8370322,-0.12461563,-0.41827697,-0.62754375,0.047080148,0.22847678,-0.41669694,0.055023547,0.68380964,-0.62467384,-0.2817955,1.0249256,-0.1743264,-0.026620612,0.27882943,-0.107476436,0.13561285,-0.3630135,0.45854992,0.20412461,-1.0137923,0.3258948,-0.14977719,-0.15302508,0.28075117,-0.22562675,-0.03812943,-0.80849373,0.2302672,0.482661,-0.46373117,-0.56635475,-0.3185356,0.069623865,0.18844867,0.2689904,0.49742126,-0.6584566,-0.72033525,0.18257335,0.019930974,0.5177377,-0.2960275,0.06675116,0.026205061,-0.44222248,-3.5031364,0.19428894,0.24437149,0.00784214,0.2799241,-0.10526763,0.25564736,-0.12394061,-0.65239966,-0.20851772,0.44063765,-1.2541215,0.3386164,0.44793808,0.7968659,-0.14938852,0.20260812,-0.41322905,-0.3469828,0.47998098,-0.24425063,-0.577167,0.41573486,-0.814017,0.4370221,1.1302272,-0.5767261,-0.649849,-0.3349178,-0.2626983,0.34314525,-0.27998218,-0.13068812,0.0051275007,0.040249635,0.27536523,0.42672375,-0.33780915,-0.3250016,-0.08945445,-0.31672674,-0.20355208,-0.07693083,0.17071848,1.1420022,-0.06733565,0.23756824,-0.4297348,-0.09079445,0.8557208,0.48713347,0.5207761,0.058696844,-0.243528,-0.24240635,-0.26680145,0.65314573,0.0813839,-0.66313887,-0.9301958,0.5462641,-0.4546577,-0.4892834,0.22038883,0.49899396,-0.22220844,-0.48036313,-0.07441025,0.11329483,0.8740826,-0.19261572,-0.36473793,-0.55744106,-0.7838745,-0.24601698,0.33731952,0.47261614,-0.2960496,0.6205387,-0.30925623,-0.41929135,-0.7582112,-0.4135028,0.017541297,-0.42075026,-1.102882,0.04730899,-0.24382012,-0.9196748,-0.8472927,-0.121344924,0.40865535,0.041825112,0.47679248,0.2710631,-0.5909366,0.505567,-0.4855734,0.46699598,-0.32931888,-0.17884192,-0.6024788,0.34809238,0.22758652,-0.013228784,-0.004506353,-0.59718484,0.44986096,-0.021884087,0.34583774,0.0066855815,-0.7917099,1.0147209,0.5919625,-0.016282186,-0.21660987,0.68593514,0.99443656,-0.2517547,-0.039720688,-0.36541533,1.2445751,-0.3025369,-0.04644298,-0.43963915,-0.12173851,0.25957122,-0.83712995,0.19808714,-0.52596265,-0.50190943,-0.1349169,-0.3097365,0.26032606,-0.2397598,-0.12205546,-0.42892933,-0.12620205,0.28007087,-0.14445624,0.18691084,0.17850293,-0.46341985,-0.07271731,-0.101115495,0.74384254,0.19410129,0.15840082,-0.04366139,0.7188616,-0.8009945,0.41715503,-0.021430744,-0.18273069,-0.09327105,-0.27941832,-0.34713027,-0.04628765,0.36152318,-1.1263902,-0.081861526,0.49562877,0.0032197516,0.5408849,-0.79074067,0.10784354,0.2923036,-0.12045889,-0.20112148,0.3959932,-0.22185922,-0.22790098,0.10882414,0.27127925,-0.5581701,0.78649086,-0.11267163,-0.036017746,-0.91764325,0.41368783,-0.10805257,-0.1418768,-0.5641216,-0.18153432,0.96254325,0.516299,0.092420965,-0.14499074,0.69391525,0.26174134,0.17390302,0.7374272,-0.76869285,-0.38423038,-1.3852154,-0.4198834,0.5426461,0.17740543,0.66053355,-0.035300013,0.4644262,0.3835266,0.54188234,0.45847785,0.0016678051,-0.5034898,0.26682588,-0.15343772,-0.1554708,0.4565962,-0.21495454,-0.7447925,-0.042468004,0.16351411,0.0047978405,0.11323799,0.12865704,0.18541604,-0.09982404,0.498763,-0.6461142,-0.18126214,-0.20104815,-0.33598995,-0.7720623,-0.30451918,0.158846,0.35627252,-0.8416413,-0.49005395,0.5063282,0.13917038,-0.1639348,-0.07713177,0.49004716,0.360628,-0.0458203,-1.10719,0.4727967,-0.32968265,0.5468343,-0.1359589,0.6185533,-0.5689268,0.2447183,0.19919793,-0.23685801,0.93422794,0.14409234,-0.006139606,0.18674108,-0.19194789,-0.31508413,-0.17194308,-0.28716916,-0.5772872,-0.44822526,0.19556421,0.43871072,0.081531696,-0.23699376,-0.01769558,-0.09125759,0.17377038,0.25541848,-0.31708902,0.6547158,0.8094056,0.7350155,-0.5534262,0.034165908,-0.46483427,0.054979406,-0.44954917,-0.083911665,-0.04532016,0.10040375,-1.3918914,-0.28221223,-0.16491978,-0.7865689,0.33222696,0.55771315,0.14065696,0.11812088,-0.14259312,-0.18897659,0.27259484,-0.39159647,-0.4734501,0.1087224,-0.013708324,0.2590498,-0.05982867,0.13679929,0.29754692,0.15274103,0.28973326,0.07346905,0.28953603,-0.511865,0.110352404,0.94206876,-0.10326851,-0.32304803,-0.024675172,-0.06999047,-0.51710963,0.20558433,0.8743625,-0.0042625475,0.06274873,0.4311224,0.593137,-0.7073411,-0.12550606,-0.19354057,-0.103287876,-0.22879654,0.4605382,0.29923397,0.4368919,1.0958374,-0.04424676,0.37501734,0.2889902,-0.43792385,0.5794583,0.79920495,0.11142095,-0.26226205,-0.048541438,-0.17424166,0.43465057,-0.13754167,-0.39506406,0.42486343,0.9422071,0.35516715,-0.033624683,0.09862534,0.64604115,0.2044683,-0.12830934,-0.27617154,0.042665612,-0.01947578,-0.47172633,1.2339296,0.4093721,0.40408188,0.7993698,-0.04758995,-0.20165677,0.5327517,-0.14649205,0.68785375,0.77071047,-0.42363605,0.33065152,0.17384064,0.9909324,0.14743757,-0.4098465,0.098797396,0.6222042,0.45251602,-0.37131488,-0.4209465,0.13956995,0.54990363,0.25092474,-0.0011277855,-0.1573215,0.012251481,1.1830016,0.1358569,-0.52046245,-0.46158725,-0.16729136,0.07098477,0.4163261,-0.91272974,-0.35043418,0.21166664,0.04442102,-0.16885495,-0.41457763,-0.008047833,0.13651541,-0.5506678,-0.45126152,0.18386011,-0.02257619,0.3997516,-0.21408872,-0.027389118,0.069534555,0.58951014,-0.41192117,0.53012764,-0.114571705,-0.14104654,0.28635648,0.18315198,-0.1439722,0.15895589,0.33441254,-0.6111094,-0.252519,-0.2612692,0.6103665,-0.77232164,0.20528072,-0.021526208,-0.14745164,-0.06788177,0.13822538,-0.74676585,0.34390247,0.2585468,-0.35799432,0.32110304,0.022046996,-0.99738616,-0.61559594,0.4808895,0.75997955,-0.14272678,-0.06179754,-0.76293164,0.5843377,0.06500047,-0.5609469,0.18915461,0.26920724,-0.4523977,0.4508795,-0.4029449,-0.5838467,0.87863106,-0.02298695,-0.4879672,-0.18360142,0.72173303,-0.6221592,0.20501398,-0.28827304,-0.08996639,-1.3242979,-0.083436005,0.2769168,-0.35974076,-0.45441607,0.3675368,-0.14301252,-0.17896873,-0.96003264,0.27184397,0.32992002
cat,0.027809262,0.17128523,-0.16611086,0.1729774,0.01653768,-0.24293528,-0.18839444,0.9672155,-0.26646003,-0.31966057,-0.03277703,-0.68871015,-0.39614713,0.17180237,-0.50076544,0.44017726,0.37924537,0.31875739,-0.30091733,0.36404228,0.62960094,-0.07477639,-0.84798044,0.17907563,0.10406945,-0.24277812,0.13468513,0.3520065,0.33052543,-0.015476165,0.3475804,-0.18108888,-0.25026447,-0.63125515,0.120322645,-0.25572,0.41260532,0.63755465,-0.34877136,-0.18206193,-0.3389869,0.08223725,0.039021604,0.519845,0.48943076,-0.35515162,0.5116622,-0.18882239,0.62268555,-0.014959046,0.011461314,0.10299415,-0.2778659,-0.3479853,0.08684321,1.1190526,-0.06187817,-0.43335003,-0.0836266,0.1893845,0.0018054999,0.6110754,-0.016752489,-0.5654074,-0.57565063,0.8146806,-0.36500534,0.84895873,-0.40106282,-0.333049,0.052296784,-0.00033273426,-0.11197442,0.38221171,0.05408511,-0.15941165,-0.32594335,0.09890042,0.36383128,-0.32561716,-0.39366442,0.61569643,-0.1715413,0.9250599,0.62200356,-0.038874745,-0.45066744,-0.15624864,-0.50374085,0.75374264,0.3732464,-0.48216268,-0.30190563,0.5414198,-0.35243878,0.2565789,0.029243907,0.11500924,-0.5950051,-0.14961669,-0.0027636413,0.036809474,0.46876094,0.59817505,8.993712e-05,-0.7588068,-0.081395626,-0.11705491,0.09162043,0.80732536,-0.13101304,-0.42825964,0.40672633,0.021036148,-0.6566618,0.30281842,-0.14731584,-0.377987,-0.2555408,0.2565579,-0.12622969,-0.8503088,-0.19859037,0.67130315,-0.462149,-0.16231656,-0.6516849,-0.13194606,-0.5681442,-0.36487803,0.70588565,0.61641526,-0.0030674243,-0.2973754,-0.035161998,0.7133331,0.58609575,0.013921891,-0.5019985,0.24079973,0.055940382,-0.173484,0.61806476,0.1956467,0.33905208,0.1377907,-0.16211583,-0.22267798,0.051531833,0.25389865,-0.14579746,-0.17223693,0.21355209,-0.50922424,-0.34183767,-0.02762298,-0.033388227,0.34442496,-0.12962043,0.10099154,-0.12536076,-0.44666752,0.014146083,0.035819046,-0.08842412,0.19068372,0.05112722,0.31389758,-0.22866051,0.5370408,-0.30069762,0.6249862,1.4203869,-0.16096348,-0.1563136,-0.1506473,0.42583287,-0.21059373,-0.18253227,0.25136533,-1.5829692,0.78499854,-0.03172274,0.11098491,0.49804997,-0.103042476,0.62951946,-0.6655571,-0.23152432,-0.38498503,-0.23334101,-0.34004676,-0.6551611,0.075287715,1.0974622,-0.5803683,-0.4230936,-0.62154967,-0.66433334,-0.7658524,0.1820852,-0.14310323,0.42991486,0.6289589,0.10250866,-0.1671942,-0.726498,-0.24609652,-0.2866384,0.8733342,-0.19450079,0.109051146,-0.3800835,0.32142562,0.08318043,-0.3566533,0.016766299,-0.49672952,-0.058083758,0.008308622,-0.25459144,0.1781549,-0.5504803,0.33707005,0.038151193,1.3698448,-0.115988,0.124571554,0.044727948,0.5495064,0.10110102,-0.1064204,0.8553401,0.07466331,-0.89189464,-0.10567802,-0.4562543,-0.5241291,0.23926009,-0.5221603,-0.14036527,0.025078673,0.6474065,-0.23320936,0.0017041548,-0.17238063,0.22688633,-0.03502852,0.23629025,-0.4161291,-0.06838994,0.052830495,0.5562746,-0.83302504,0.02925943,0.046471518,-0.09218678,-0.3659124,0.011769,0.2377014,0.47048494,0.13340291,0.8138085,-0.4321563,-0.40493903,-0.6054875,-0.115352914,0.12875038,-0.27601734,0.19529785,0.63261616,-0.40853184,-0.07054937,0.7993354,-0.17841123,0.059614044,0.24336083,-0.20625944,0.19293684,-0.45930213,0.4098564,0.17728737,-0.7878452,0.13295971,-0.18938178,-0.023621518,0.24108385,-0.039213195,-0.19778387,-0.67055565,0.23118074,0.500177,-0.41330862,-0.5510863,-0.34926265,0.12821293,0.3700141,0.26590335,0.4586792,-0.47391206,-0.44712025,0.31464994,0.16251476,0.3181508,0.2564293,0.0057578,-0.0057172985,-0.22871476,-3.9471233,0.22503732,0.025239548,0.043391805,0.4228613,-0.16574295,0.23019284,-0.15717927,-0.69872475,-0.24640319,0.31377608,-1.0760816,0.5084536,0.6288076,0.78943706,-0.17295763,0.025121164,-0.3544104,-0.41504273,0.5252332,-0.2971847,-0.4937006,0.10844037,-0.6530635,0.34163958,1.0232393,-0.42223805,-0.61171347,-0.15985721,-0.047764316,0.23758718,-0.099855416,-0.18835038,-9.436439e-05,0.22513108,0.31939763,0.42595515,-0.3818393,-0.367006,-0.011724732,-0.04809313,-0.41281518,-0.16914131,0.51936734,0.6059557,-0.07579149,-0.29212883,-0.6321453,0.05962061,0.863469,0.36946294,0.3824907,-0.21389265,-0.11634159,0.005789283,-0.28400078,0.54041076,0.24846192,-0.5137531,-0.50990194,0.11904045,-0.24118435,-0.54886854,0.25269377,0.42679298,0.056208435,-0.56423646,-0.2327832,0.2795542,0.58156043,-0.16190612,-0.41812223,-0.533614,-0.7258531,-0.07493751,0.31759638,0.2277183,-0.30743894,0.68811905,-0.1976786,-0.15157557,-0.77494127,-0.27312896,0.16884282,-0.7163536,-1.1203582,-0.0813851,-0.3875767,-0.87351257,-0.80609244,0.17538303,0.2729517,0.16570163,0.18644165,0.3239588,-0.45570433,0.27744475,-0.4373418,0.35200247,-0.23238085,-0.23700167,-0.6271501,0.4693929,0.117855966,0.34248534,0.0069948514,-0.55214775,0.55071616,0.15691233,0.35288876,0.070424855,-0.6839108,0.74821204,0.16628937,-0.29906476,-0.1433736,0.615286,0.6612751,-0.39238343,-0.019907227,-0.36624244,0.92724115,-0.2713228,-0.176927,-0.51453114,0.06784481,0.28001997,-0.75285095,0.461889,-0.48270628,-0.6195415,-0.18391027,-0.12031038,0.4050556,-0.113171026,-0.2281591,-0.5984159,-0.41552132,0.027146498,-0.21477571,-0.15795755,0.28957605,-0.21253638,0.08978093,-0.11843962,0.31345516,0.44101572,-0.1493281,-0.016791262,0.6540787,-0.6334229,0.1982139,-0.101794414,0.004104673,-0.11112538,-0.5027289,0.04115433,0.0554789,0.48527983,-1.157519,-0.19588466,0.5398952,0.11810872,0.55228525,-0.70211536,0.288646,0.26187143,0.04036402,-0.19142728,0.28335482,-0.22661209,-0.28277454,0.17062826,0.37656724,-0.67889637,0.72047186,-0.22078843,0.019508947,-0.7542944,0.5651852,-0.049322795,-0.06351791,-0.61630756,-0.11710304,0.7604196,0.2991136,0.3068751,-0.31056866,0.4654925,0.039901607,-0.05763165,0.8876511,-0.40825707,-0.26892474,-1.3060621,-0.3715395,0.38513082,0.30385464,0.6145562,-0.26011372,0.14771576,0.5082962,0.36058554,0.26908526,0.0043213223,-0.4835593,0.41351232,-0.113155074,-0.17033377,0.42870316,-0.42007032,-0.82588303,-0.052356027,0.087206505,0.03896076,0.18954682,0.18358506,0.08487505,-0.031105373,0.26658952,-0.63246226,-0.08138429,-0.3066967,-0.2321842,-0.70490235,-0.24053285,0.0323267,0.45901486,-0.36847717,-0.38687003,0.50868475,-0.20152043,-0.049860332,-0.047463056,0.5383911,0.054168474,-0.043737292,-0.9770832,0.2547977,-0.26995468,0.6069788,0.14336279,0.75967956,-0.651063,0.14327087,0.3104365,-0.33419424,0.7523221,0.15745252,0.035527833,0.3377102,-0.19442485,-0.3098772,-0.097401276,-0.28253317,-0.2628872,-0.46596462,0.28662735,0.28647265,0.12867334,-0.22610308,0.22566852,-0.17919189,0.2054065,0.0660303,-0.07845562,0.59895504,0.49056396,0.4338773,-0.7487343,-0.25424755,-0.5694003,0.10938839,-0.5081568,0.2671279,0.08663626,0.15809616,-1.25893,0.03205134,0.1360066,-0.62799495,0.30543345,0.3045315,0.14566085,0.04625954,-0.22973041,-0.26427904,0.20821744,-0.24773099,-0.2902194,0.20756878,0.05255351,0.26780474,-0.09028337,0.15289254,0.26548207,-0.0017882587,0.4445321,0.2809301,0.13858034,-0.52999216,0.2829652,0.9862174,-0.11313082,-0.23138797,-0.060622904,0.016055169,-0.5289934,0.08860267,0.61237395,-0.0006143058,0.058315407,0.34628168,0.21894577,-0.33979154,-0.13226993,-0.22222193,-0.29917812,-0.090425566,0.29799557,0.20007485,0.3041268,0.82764995,-0.039270543,0.45097452,0.206262,-0.52912456,0.60826015,0.73079616,0.008228942,-0.16064462,0.0727307,-0.09116292,0.33957314,-0.099557795,-0.31524426,0.11527959,0.730529,0.36916423,-0.042506285,0.040619258,0.41763097,0.017927168,-0.045561206,-0.15888669,-0.014196755,0.060633976,-0.44694638,1.1740686,0.552004,0.52436274,0.68046546,-0.19270417,-0.2708972,0.6466687,-0.2858487,0.5884006,0.70250034,-0.55030495,0.26975942,-0.056175943,0.6909155,0.12588963,-0.28816172,-0.14137462,0.6119429,0.47302043,-0.373218,-0.2737037,0.12362984,0.26676208,0.15811628,0.084391475,-0.007552105,0.12575115,0.8789022,0.2931501,-0.50826246,-0.51659703,-0.27672276,0.078929655,0.27575648,-0.81384444,-0.24551992,0.13582727,0.34381613,-0.15740609,-0.43410036,-0.1902148,0.09058168,-0.7218693,-0.2129863,0.34881055,-0.31459224,0.48226497,-0.09821702,-0.122343905,0.0597268,0.3039866,-0.18235782,0.40785512,0.13881817,-0.20090745,0.11556924,0.013653926,-0.14680544,-0.044983726,0.20575944,-0.5535425,-0.2517445,-0.46770635,0.34645608,-0.64392877,0.1578521,0.06754866,-0.19593765,-0.00460869,-0.043848522,-0.61672634,0.28702357,0.40449297,-0.29760122,0.16580239,-0.1555146,-0.86712307,-0.5302421,0.5045254,0.6377374,-0.03510604,-0.031613287,-0.6957619,0.30925277,-0.06507943,-0.6722468,0.36005396,0.20443127,-0.36228326,0.35297087,-0.21475329,-0.50556934,0.6793401,-0.10339015,-0.4309891,0.013736058,0.7535535,-0.4222964,0.13143678,-0.30678108,0.04120295,-1.0590725,-0.12248775,0.20653546,-0.231736,-0.27281207,0.43194407,-0.057302564,-0.33772004,-0.8356114,0.17429641,0.37689137
sat,-0.13570958,0.28997457,-0.28670207,0.37691548,-0.02126214,-0.21085832,-0.2975428,1.1012344,-0.21983884,-0.13028304,0.13515551,-0.7163799,-0.33429927,0.1009072,-0.23682313,0.4311597,0.47558936,0.08542851,-0.16381134,0.34675273,0.5186505,0.022698829,-0.7015321,0.21104757,-0.02845499,-0.45268053,0.109567545,0.18386717,0.2293712,-0.040900275,0.25228155,0.16862161,-0.3743719,-0.4451681,0.20547314,-0.40760922,0.51920044,0.69632196,-0.48069528,-0.05319449,-0.5393105,-0.31165522,-0.07827042,0.38670278,0.30983743,-0.2293535,0.781055,0.07885949,0.56217587,0.013288156,0.088778645,0.041191965,-0.091989405,-0.22307354,0.21053396,1.0625786,-0.023621846,-0.2839847,-0.25375187,0.122881405,-0.012433053,0.720287,0.057841122,-0.8199882,-0.3801256,0.63646966,-0.39803383,0.6961177,-0.5961492,-0.25644836,-0.40511674,-0.15980795,-0.27830562,0.28446928,-0.03506584,-0.4477225,-0.6274215,0.3086172,0.44550028,-0.41033944,-0.58580524,0.6566805,-0.46593422,0.8764931,0.6287118,-0.059727088,-0.45731094,-0.3161823,-0.43323892,0.56005573,0.18523848,-0.43678188,-0.07477912,0.41566163,-0.26727027,0.5537951,0.117207594,0.10929725,-0.5799965,0.09312389,-0.040762145,-0.2715346,0.49522346,0.5946259,0.11203668,-0.83879876,0.0044778488,0.16786699,0.042406734,0.7454801,-0.13714921,-0.44746163,0.42410567,-0.0068513295,-0.42294317,0.44885907,-0.12825632,-0.5611586,-0.12078099,0.54164714,-0.16052835,-0.97940165,-0.37937427,0.7060867,-0.46490106,-0.15721543,-0.68325657,-0.22085129,-0.7123105,-0.34681988,0.6793489,0.5445016,0.13907242,-0.34775978,0.027048238,0.7644299,0.48074922,-0.15841898,-0.53938997,0.08892715,-0.18839876,-0.1373908,0.96765286,0.2531146,0.36862963,0.13099208,0.14746045,-0.36923486,-0.09335854,0.19560036,-0.1476611,-0.26706278,0.2400904,-0.26985195,-0.3713454,0.14320928,-0.07674374,0.31999338,-0.016720526,0.06661178,-0.11749956,-0.2582748,0.11370048,0.11887169,0.162366,-0.014749159,0.16156559,0.23909217,-0.12737058,0.72283435,-0.25213638,0.54967034,1.3821834,-0.273222,-0.17722839,-0.108215496,0.25221613,-0.31485918,-0.31137562,0.37219915,-1.4446965,0.7171043,0.03277386,-0.01395149,0.5739214,-0.28957725,0.6631598,-0.6660733,-0.54802096,-0.12333356,-0.4263848,-0.2320487,-0.8413394,-0.02811918,1.1431042,-0.5606807,-0.24694486,-0.750193,-0.6986343,-0.8012428,0.18266165,-0.13977604,0.2877208,0.70113635,0.38154247,-0.17252244,-0.6440421,-0.3032845,-0.34153986,0.8199946,0.0022597911,0.23610152,-0.36642057,0.38258177,-0.10940219,-0.3549449,0.017186547,-0.31066132,0.24996658,0.07529338,-0.34707084,0.31703633,-0.45290455,0.29279223,0.10447608,1.3746363,-0.21322335,0.084613405,-0.2144244,0.43032414,-0.07855986,-0.06962962,0.6450861,-0.19717818,-0.70719534,0.070712,-0.11643919,-0.47179696,0.13996604,-0.6217548,-0.16158895,-0.16750368,0.83256817,-0.3686189,0.009747229,-0.010016598,0.13872935,0.011570083,0.2200632,-0.43025625,-0.088375255,-0.13384487,0.29426536,-1.0583922,-0.36224067,-0.082477815,-0.17678761,-0.37527412,-0.026604738,0.12851614,0.768538,0.15382263,0.79870677,-0.3774828,-0.48408413,-0.53010947,0.094388165,0.16169351,-0.1032375,0.333714,0.64719087,-0.3970383,-0.0665943,0.85952085,-0.18108374,0.11433437,0.18883558,-0.27094585,0.060836192,-0.41841632,0.5961723,0.23588212,-0.5159476,-0.04849804,-0.12737352,-0.030125914,0.27869472,-0.13875857,-0.03469244,-0.70561737,0.24029645,0.55116445,-0.37315813,-0.566643,-0.31500962,0.16916336,0.25532907,0.23752843,0.3591069,-0.33668423,-0.5120505,0.1729723,0.05398983,0.56317735,0.18446925,0.036208794,-0.00905432,-0.2988089,-3.8268998,0.16716155,0.28069088,-0.11181333,0.25130668,-0.11397268,0.102356024,0.06968498,-0.9034004,-0.3024558,0.09931644,-0.99994284,0.72679156,0.53596884,0.9563274,-0.06376869,0.23255953,-0.4268959,-0.39503616,0.4094277,-0.33876857,-0.6470121,0.039326787,-0.5287946,0.28610978,0.82314885,-0.016661037,-0.47992873,0.009670171,-0.49153158,0.26625413,-0.17452781,-0.13900343,-0.0126895765,0.016747283,0.2917768,0.5041126,-0.27296656,-0.2911791,0.21647672,-0.22512916,-0.710498,-0.323708,0.38922665,0.8142557,-0.10222353,-0.104229815,-0.60466766,0.05526903,0.73894805,0.5014068,0.19128391,-0.31005463,-0.20759656,0.058281448,-0.2917794,0.39631742,0.38070312,-0.6588898,-0.49719676,0.17293844,-0.3699274,-0.55459386,0.1768501,0.19673894,0.042039685,-0.52304465,0.15193677,0.1316095,0.5570067,-0.04030588,-0.28308615,-0.5021265,-0.80010045,-0.081281014,0.47098994,0.1394169,-0.3748598,0.5643831,-0.19875899,-0.31050962,-0.69682074,-0.21164712,0.070622,-0.43819058,-1.0742842,-0.2983288,-0.35878682,-0.74038553,-0.8765122,0.08111411,0.50384784,0.04555054,0.28438115,0.47667557,-0.35214823,0.22862302,-0.38926476,0.2948749,-0.2266181,-0.04485603,-0.41956908,0.5220206,0.20558663,0.24283193,0.061270025,-0.70562726,0.4968905,-0.1481936,0.385444,0.003172406,-0.75529397,0.9531296,0.052615985,-0.22570674,0.011402213,0.48215035,0.75131655,-0.4062771,-0.23073368,-0.48082352,1.0479462,-0.43466908,-0.27378365,-0.5036569,0.07400479,0.12748544,-1.0965695,0.33842772,-0.2566285,-0.5990611,-0.26584458,-0.06530125,0.5532062,-0.10913742,-0.27304468,-0.7078409,-0.6093656,0.30228415,-0.13526645,-0.31290305,0.37610024,-0.07475615,-0.19990529,-0.04074397,0.58685476,0.50524086,-0.14223208,-0.11113627,0.6907101,-0.8306477,0.32752493,-0.22087292,-0.09130256,-0.09322695,-0.4023991,-0.04056357,0.01036792,0.5288644,-1.0770702,-0.3897712,0.710214,0.17440544,0.69436955,-0.79704106,0.35383448,0.2814323,-0.107786246,-0.09986504,0.33257884,-0.47821757,-0.465621,0.08418721,0.42108804,-0.6522294,0.82221264,-0.13444553,0.10476127,-0.77528155,0.5900265,-0.29759747,-0.019861087,-0.6965844,-0.21606459,0.7512082,0.41450503,0.106971845,-0.122629136,0.43622348,0.04993018,0.09405221,0.50387794,-0.36362222,-0.32555938,-1.0456811,-0.44014704,0.45967373,-0.20786987,0.65151393,-0.3714806,0.1284811,0.37969333,0.28583238,0.25907657,-0.12181786,-0.4487296,0.4327842,-0.03294261,-0.21343365,0.48748854,-0.39161915,-0.8672453,-0.055976268,0.13815759,0.17408006,0.14709835,0.3508908,-0.2560827,-0.1259225,0.2868706,-0.61060315,0.042076744,-0.3227077,-0.32606065,-0.75452405,-0.21523675,0.50568396,0.4110502,-0.753751,-0.5615945,0.5767642,-0.26192734,0.09226116,-0.056171812,0.2787517,0.19312628,0.13054323,-1.0209875,0.10446272,-0.32807317,0.6649687,0.13426419,0.7970351,-0.8470203,0.09633218,0.35359588,-0.07958924,0.7258895,-0.001850428,-0.04730944,0.29648405,-0.25147662,-0.18992662,-0.13659853,-0.025981514,-0.6742772,-0.3447121,0.3046873,0.20267056,0.00642436,-0.16025636,0.32516488,0.0031296455,0.14263812,0.19419944,-0.08677964,0.7341413,0.4845946,0.69566554,-0.76743513,-0.00043149287,-0.59119433,0.094453715,-0.4135228,0.18976457,-0.06484306,-0.044017553,-1.3307886,0.34752658,-0.0432335,-0.65997434,0.36047235,0.48546863,0.14920627,0.0651454,-0.12589556,-0.35910702,0.31235206,-0.12130757,-0.48803163,0.1390189,-0.032200042,0.30445755,-0.019843314,-0.07534562,0.1848169,0.21302201,0.20971325,0.6862097,0.13420871,-0.50983,0.28254712,0.8731284,0.11728313,-0.014459991,-0.117132686,0.14160939,-0.61740226,0.38572088,0.5285742,0.38456002,-0.03331438,0.43841785,0.36931026,-0.4563749,-0.24586755,-0.25755864,-0.1230994,-0.085918814,0.19452514,0.2192514,0.2938114,0.8998352,0.00157052,0.49948803,0.24461949,-0.4433213,0.5315893,0.6288218,0.34415445,-0.117206536,0.17550698,-0.09562951,0.24000269,-0.18592614,-0.08945991,0.12572014,0.653759,0.48962396,-0.06646971,-0.1636022,0.43823397,0.40758508,0.23659366,-0.019094335,0.023289884,0.12887019,-0.38214543,1.233247,0.33431855,0.5795901,0.69713056,-0.20577365,-0.0691274,0.8963227,-0.34247997,0.46018383,0.676594,-0.49437618,0.393869,-0.008676106,0.6048977,0.2698312,-0.124585845,-0.14065933,0.7683383,0.40578333,-0.6018948,-0.48872685,0.26581252,0.34755337,0.2073345,0.28447285,-0.09194719,-0.13012724,0.9078702,0.30057007,-0.4024635,-0.47968838,-0.19424367,0.091684975,0.3628165,-0.82236373,-0.25299945,0.012770932,-0.02009531,-0.052503873,-0.21485233,0.12925108,-0.006141578,-0.7169614,-0.3830765,0.56949395,-0.3558311,0.36310437,-0.021161718,-0.14796728,0.048954144,0.2417113,-0.31522223,0.20683886,0.079017825,-0.22716142,-0.06645935,0.1198262,-0.056875166,-0.14850378,0.21611023,-0.48419994,-0.021631023,-0.5319304,0.54754215,-0.55929023,0.023342393,0.0958393,-0.046626236,-0.030162448,-0.03779141,-0.4421816,0.41034934,0.050577577,-0.023349268,0.15454233,0.07130331,-0.64662427,-0.6906676,0.64891976,0.4203939,-0.1324929,-0.2054494,-0.6460996,0.14510521,0.18945627,-0.648542,0.13414267,0.4718999,-0.5132633,0.38981673,-0.3972365,-0.5394214,0.5741218,-0.061271764,-0.55960184,-0.06955991,0.8646538,-0.3004348,-0.14114732,-0.40735176,0.076212995,-1.0673481,-0.1979915,0.22251527,0.027889756,-0.24562746,0.09153994,-0.15554656,-0.40069538,-0.8320084,0.09244987,0.35525873
on,-0.2670601,0.14037748,-0.23365033,0.4827609,-0.045712676,-0.012474818,-0.7620021,1.1008545,-0.53193533,-0.20370801,0.35235152,-0.8507188,-0.42680973,0.079919375,-0.1336097,0.6760613,0.43014735,0.12843615,0.021517418,0.43496814,0.41967097,0.12118651,-0.6866008,0.3466568,0.40074962,-0.61687016,0.15415491,0.15454528,0.34228194,-0.18823579,0.22303773,0.25212008,-0.09541461,-0.5822617,0.09694598,-0.011612734,0.63998055,0.7103603,-0.17057277,0.032600526,-0.8254761,-0.12069272,0.069977865,0.20653903,0.20223817,-0.3337903,0.93176687,-0.2163522,0.7279513,0.003588557,-0.20354344,-0.0038156693,-0.10313046,-0.31169418,0.08307949,1.0499443,0.015266705,-0.26853707,-0.105257474,0.164467,0.015591277,0.9274233,0.22964866,-0.8782582,-0.46416983,0.37703356,-0.5381603,0.74733216,-0.85386205,-0.096022114,-0.5633956,-0.18024056,-0.119754456,-0.008452136,0.24791838,-0.6816264,-0.52339745,0.08365481,0.3792034,-0.37079677,-0.44663325,0.7183391,-0.651137,0.8653387,0.6961139,0.0039145723,-0.65886325,-0.117035836,-0.37154984,0.40426093,0.07465564,-0.37202603,0.2123537,0.44491246,-0.03880428,0.44894278,0.11938501,0.30847776,-0.6997963,0.7539323,0.0033614556,-0.42489243,0.3375706,0.6054805,0.24445842,-0.7594379,0.51118916,0.15928076,0.04072025,0.53321254,-0.28711206,-0.712032,0.3782668,-0.20113888,-0.17860956,0.4569111,-0.25935945,-0.4368262,-0.04682893,0.46227947,0.15230447,-0.89409333,-0.029338278,0.644496,-0.35738692,-0.20126109,-0.6318596,-0.12830849,-0.59581584,-0.14980999,0.7445269,0.57835364,0.14014477,-0.6688042,0.14959426,0.9381921,0.54518825,-0.27160594,-0.71325386,0.121300414,-0.014324949,-0.24632987,0.73389566,0.29319257,0.31633607,0.19807452,-0.0429656,-0.4771614,-0.04826625,0.2761205,0.06254543,-0.18648972,0.23928252,0.0221719,-0.38605508,-0.033202946,-0.17614542,0.30789456,-0.09706745,-0.10491208,-0.30625588,-0.30009535,0.15387371,0.12674914,0.066852845,0.085194595,0.14894216,0.089826636,0.19866581,0.5275674,-0.41968536,0.45721164,1.5318233,-0.23428941,-0.45731208,-0.12531196,0.10483761,-0.18898718,-0.27579737,0.2618751,-1.2587045,0.72045606,-0.019747078,-0.17038281,0.30212724,-0.46958193,0.7643486,-0.37523156,-0.6088888,0.019065041,-0.21387982,-0.13436872,-0.9040297,-0.037297975,1.0454011,-0.62237227,-0.49195546,-0.7716841,-1.0060046,-0.7427284,-0.023977498,-0.21934469,0.62741476,0.49887863,0.20956247,-0.44292602,-0.7404519,-0.18274671,-0.53303826,0.4478526,-0.11975174,0.32793623,0.016215388,0.37093562,-0.09286291,-0.21053337,-0.005725516,-0.27539778,0.1641078,0.07629626,-0.063316695,0.4997976,-0.44779754,0.2890831,0.22278012,1.2836998,-0.18278223,-0.14482129,-0.36635995,0.8260261,-0.092973985,-0.29753578,0.8856627,-0.007263292,-0.639637,-0.030779626,-0.11828741,-0.22473422,0.21006395,-0.4039527,-0.21002127,0.101780325,0.813588,-0.5092996,0.231842,0.15080804,0.10676498,0.04909969,-0.1127296,-0.46190438,-0.16844784,-0.2130621,0.19495204,-1.0672686,-0.668775,-0.05104419,-0.23816682,-0.5245709,-0.0072194776,0.07963005,0.34596723,-0.15598992,0.4235962,-0.31161523,-0.40708238,-0.36603394,0.1988666,0.34200627,-0.013030292,0.19453786,0.68694407,-0.42291558,0.14939672,0.59170437,-0.47767165,-0.010438941,0.053973418,-0.31158367,-0.079565614,-0.4000555,0.2869376,0.3547127,-0.44144696,0.13810633,0.116051644,-0.075041056,0.35498986,-0.28772107,0.079422414,-0.6170176,0.26174754,0.5735274,-0.3017919,-0.68611634,-0.11326701,0.26189774,0.38162255,0.12675896,0.31053257,-0.3180203,-0.36942548,0.088812724,0.17326374,0.65535355,0.32948372,0.25024363,0.04148205,-0.40376636,-3.763324,0.26079822,0.3336439,0.046195358,0.42364153,-0.3526043,-0.02489505,0.15018971,-0.91918856,-0.2174138,-0.08946583,-0.9317543,0.53579926,0.34915596,0.92971873,-0.08421061,0.17151889,-0.29627565,-0.49544728,0.4180409,-0.5019621,-0.68306375,-0.14026895,-0.43871456,0.31789744,1.1851982,-0.12685664,-0.31205887,-0.13775757,-0.37663496,0.54215753,-0.21049713,-0.07645541,-0.19217098,-0.013178926,0.3633492,0.3106828,-0.12954955,-0.5267911,0.11450714,-0.41186142,-1.0531373,-0.17831896,0.2923393,1.2561373,-0.24327353,-0.02174977,-0.71508336,0.16698791,0.82684594,0.504391,0.16705737,-0.19916813,-0.122372046,0.038859665,-0.026003055,0.5472367,0.18272229,-0.48244992,-0.71828413,0.25344437,-0.32329047,-0.6288679,0.3317091,0.28879935,-0.19227186,-0.46982574,0.2062951,0.5042175,0.5121869,-0.14515817,-0.15432319,-0.45115244,-0.7118079,-0.13155058,0.15756921,0.5373359,-0.36348486,0.55185694,-0.05809111,-0.37228942,-0.87204266,-0.123418555,-0.07718465,-0.80173373,-1.2996491,-0.049661636,-0.5430423,-0.7596169,-0.77656984,-0.022340322,0.44176814,-0.16583206,0.24726588,0.4458886,-0.31397852,0.22709464,-0.20486318,-0.0323877,-0.34010723,0.06019827,-0.4844379,0.8882298,-0.13089019,0.13321191,-0.06825868,-0.6574027,0.5071117,-0.27680635,0.103012845,0.0065494883,-0.8280771,1.0942099,-0.28249893,-0.07131796,0.12671159,0.35427418,0.8178552,-0.79361695,-0.20112997,-0.38114825,0.7755614,-0.3770323,-0.26163545,-0.117353134,-0.037899192,0.327555,-1.0867811,0.12685628,-0.21053281,-0.34141722,-0.17651589,-0.03735383,0.6835117,-0.113983415,-0.13934913,-0.64040226,-0.67674804,0.47807455,-0.19853605,-0.3751752,0.26852593,0.121570654,-0.18957873,-0.50998074,0.46667707,0.15884995,0.09011995,-0.37528297,0.7333996,-0.72236603,0.42587486,-0.21722408,-0.20852971,0.19096282,-0.18859911,0.11189606,0.106457315,0.45740595,-1.0057601,-0.32034245,0.4060103,0.49355802,0.4893662,-0.65455866,0.053233486,0.41413862,0.058582775,-0.14664087,0.20917192,-0.20700213,-0.4714861,-0.20144284,0.2523901,-0.86507386,0.77131385,0.16898456,0.17897429,-0.913452,0.46445552,-0.47934175,0.08061504,-0.5132529,-0.45761412,0.43142492,0.34112337,0.08847202,-0.0478278,0.42044625,0.05738491,0.15900323,0.50884163,-0.009835434,-0.13541172,-1.0564957,-0.35063735,0.43482512,-0.03534182,0.39774442,-0.4025361,0.20159267,0.2798125,-0.026505573,0.5322256,-0.090377234,-0.6013519,0.14384744,0.022394247,-0.1860704,0.28812975,-0.71659845,-1.0526494,-0.34350672,-0.065916315,0.33741778,0.09041642,0.23308505,-0.22401331,0.14275888,0.4385517,-0.7517743,0.09582782,-0.12022517,-0.09326497,-0.44779873,-0.107786156,0.59338665,0.33055845,-0.32913366,-0.45024234,0.48462522,-0.74836767,-0.031441122,-0.02167682,0.33627775,0.1634483,-0.026269298,-0.78139424,0.020035215,-0.060977604,0.36859196,0.13359776,0.49293116,-1.0326846,0.2926796,0.19184394,-0.14664368,0.83042175,-0.19725713,0.242756,0.35251603,-0.2896994,-0.13257466,-0.15683879,-0.28428662,-0.5077159,-0.58163774,0.08458093,0.31744102,0.18440007,-0.0475118,-0.031301163,-0.19490327,0.16988473,0.27639046,-0.18754132,0.5574054,0.32443684,0.35632494,-0.5115823,-0.04250787,-0.43019217,0.10729081,-0.1507835,0.62457013,0.09835157,0.03455451,-1.1161611,0.17964093,-0.13506831,-0.55421567,0.5160956,0.434124,0.27537027,-0.1733148,-0.1222583,-0.36201122,0.34614334,-0.1135181,-0.13757765,0.054681387,0.27047783,0.51476675,0.2881396,-0.15058276,0.49774647,0.41969946,0.119394675,0.63475734,0.019349985,-0.7000025,0.041116063,0.7494552,0.2425809,-0.20332117,0.015969085,0.0540386,-0.4849382,0.31489354,0.18389967,0.5868944,-0.23343848,0.5278545,0.37625763,-0.41958335,-0.21908486,-0.16712789,-0.28716823,-0.21634114,0.14584172,0.35715964,0.25074628,0.86607325,-0.092552304,0.68030196,0.33600405,-0.35716194,0.3463781,0.53804284,0.41675633,-0.4293104,0.13451637,-0.25831202,0.44550762,-0.087970726,-0.30563262,-0.042709373,0.7702792,0.63959634,0.019603567,-0.25220147,0.2985487,0.5916511,0.21557818,0.16388766,0.12086062,0.07526216,-0.6048097,1.2071209,0.43778026,0.4429523,0.64940983,-0.14720654,0.17986207,0.58969724,-0.05495463,0.5587912,0.54744583,-0.3279938,0.49309567,0.048440833,0.7407948,0.29575524,-0.26619062,-0.14110795,0.6535933,0.35477984,-0.8453397,-0.61147475,0.13738781,0.51176184,-0.05169315,0.5700745,-0.43442026,-0.12055362,0.74606884,0.0802474,-0.6873947,-0.5909733,-0.027813967,0.24468212,0.4949254,-0.7851973,-0.4547969,-0.11704359,-0.29887024,0.085169725,-0.08451262,-0.09549164,-0.1275411,-0.53770196,-0.14455424,0.5101726,-0.36065066,0.12358203,0.041422512,0.11502422,0.1831416,0.4153091,-0.20407693,0.21279965,0.07229382,-0.2506921,-0.031480107,-0.044105213,-0.027957976,0.14881378,0.08187642,-0.47980505,-0.09631647,-0.110330276,0.4202309,-0.47102627,-0.05404626,0.1803133,-0.13971299,-0.043115284,-0.10841033,-0.4918936,0.5642422,0.279958,0.12961818,0.04853523,-0.05138006,-0.5338813,-0.26283142,0.6767696,0.6288189,-0.12334962,-0.31891996,-0.6917309,0.32879892,0.19153705,-0.52884066,0.028597385,0.5361061,-0.66025585,0.27890795,-0.46898067,-0.6701073,0.5264572,-0.09937544,-0.3202468,-0.074593514,0.81160295,-0.32929757,-0.40289694,-0.46033987,0.3989517,-1.226532,-0.19586085,0.39097944,0.14989941,-0.19567493,0.18478248,-0.09683573,-0.44297874,-0.7177772,0.3687105,0.40309614
the,-0.1473698,-0.19414772,-0.4052597,0.57396764,0.13606498,-0.19687083,-0.50332797,1.0100226,-0.7204286,-0.1501695,0.4338347,-0.76030385,-0.49869806,0.20451602,-0.47892502,0.39778256,0.6504088,0.22823168,0.060725957,0.34163883,-0.060373846,0.11439897,-0.5711515,0.6023694,0.5578171,-0.29943764,-0.08705299,0.24556047,0.05495038,-0.48293763,0.2099598,0.11640313,-0.38167608,-0.7477853,0.079267144,-0.030364297,0.2525568,0.44312596,-0.51454586,-0.22020917,-0.96737015,0.03463735,0.10148409,-0.1554703,0.40334612,-0.42815316,0.76296824,-0.585031,0.3610422,-0.16623873,-0.040879138,0.012475496,-0.16769634,-0.47199082,0.10691731,1.1091092,0.17538527,-0.22119033,0.08134343,0.17943542,0.033176582,0.8111539,0.20100681,-0.9618925,-0.22368595,0.3427214,-0.46986973,1.2127746,-0.8213141,0.24997035,-0.61762387,-0.2686363,-0.055301696,0.07345873,-0.18528101,-0.72605646,-0.789961,0.04877769,0.23285997,-0.36791542,-0.47423747,0.5634571,-0.6939852,1.0717901,0.67426276,-0.0030905216,-0.4220908,-0.049052667,-0.47825646,0.67075765,0.08772601,-0.1344964,0.26350114,0.33441305,-0.0384402,0.22857276,0.13759889,0.12944858,-0.25078565,0.8671502,-0.02740893,-0.16423291,0.112451054,0.5252119,0.1552236,-0.82542247,0.75878936,0.07156546,-0.23611423,0.6514479,0.086614355,-0.6922066,0.071284436,-0.0009595654,0.07621286,0.47183213,-0.20907955,-0.52597344,0.016913975,0.6279874,0.42674193,-0.6642093,0.019393424,0.741326,-0.33944562,-0.07855437,-0.8991303,-0.029079493,-0.6229044,-0.42727438,0.99211323,0.7460836,0.022323143,-0.8523127,0.30014178,1.1502945,0.36530954,-0.14398998,-0.94190234,0.46016267,-0.084906876,-0.41202897,0.3542869,0.14051272,0.28061542,-0.11750602,0.06093426,-0.64428985,0.046895012,0.54450035,0.40526578,-0.25632292,0.21522011,-0.11408199,-0.34166437,0.22273533,-0.2276985,0.2676913,-0.13466203,0.022776864,-0.15226659,-0.55486506,0.30222708,0.08930012,-0.28130907,0.25620642,0.29904124,0.27038223,0.35178947,0.5669617,-0.46109733,0.39249477,1.7114718,-0.03042887,-0.7836824,-0.45416313,0.1152794,-0.15274991,-0.2704078,0.106136456,-1.4142538,0.6807179,-0.014852603,-0.013323416,0.31200156,-0.53836423,1.2219834,-0.50625,-0.39814684,0.08268968,0.177691,-0.42659485,-0.9657322,-0.010599684,0.995601,-0.7125818,-0.75469965,-0.82270014,-0.7235252,-0.5918236,0.21253838,-0.19450739,1.0122519,0.5307338,0.04452775,-0.2852235,-0.82782006,-0.22861068,-0.59749776,0.60189974,-0.2733909,0.15696463,-0.011533546,0.10767375,0.19465375,-0.3704467,0.15314813,-0.39867446,0.28868547,-0.1216669,0.14870963,0.6654342,-0.8069235,0.16455309,0.41891557,1.588708,-0.45639527,-0.23996934,-0.33037388,1.261227,-0.19085594,-0.3059825,1.0880326,0.36638665,-0.58073515,-0.2163693,-0.46418923,-0.09570883,0.17185798,-0.39091486,-0.2819584,-0.016700732,0.688727,-0.25229234,0.08940513,-0.025547838,-0.13900599,0.32071632,-0.12291623,-0.4868293,-0.4442679,-0.25876164,0.31567255,-1.1047078,-0.8591376,-0.21171543,-0.14358647,-0.4953013,0.052964214,0.014147798,0.34781995,-0.11916766,0.2954446,-0.3041444,-0.379482,-0.44693664,0.10832235,0.23994784,-0.16930093,0.26054087,0.3955696,-0.5769475,0.38331568,0.7643824,-0.81702346,-0.1092824,0.42509308,-0.51057315,-0.28338543,-0.7396851,0.09191079,0.42571315,-0.7591528,0.14188164,-0.09573769,-0.21537603,0.21615545,0.020600839,-0.124416724,-0.52390206,0.32990363,0.8387132,-0.49353668,-0.561694,-0.26768062,-0.00094894983,0.32517937,-0.10317983,0.50140685,-0.19090144,-0.31618145,0.12690051,0.0688069,0.88969,0.12518735,0.05653626,-0.33967036,-0.3701383,-3.3269053,0.37246192,0.19975533,-0.15119839,0.32637176,-0.32676393,-0.038896788,0.057441793,-0.69245154,-0.23791048,-0.2491119,-0.97959834,0.55971444,0.047906637,1.15826,-0.17454095,0.19246224,-0.23565966,-0.48406893,0.51783735,-0.5746958,-0.68455464,-0.2609545,-0.44118783,0.2633741,1.2526838,-0.119083315,-0.4465401,-0.4250483,-0.26368135,0.53102916,-0.16591255,-0.22248645,-0.07781883,-0.027466884,0.20220698,0.3047095,-0.17114837,-0.7604996,0.104771815,-0.46218222,-0.7964357,0.17478718,0.4536159,1.6361547,-0.1098738,0.008071854,-0.59142816,0.30782875,0.9037511,0.68039054,-0.14573233,-0.2450532,0.12422009,-0.102038436,-0.08940262,0.7121232,-0.086635016,-0.38722685,-0.95962834,0.26822048,-0.4334904,-0.5669063,0.2571481,0.27619234,-0.45606264,-0.4839243,0.2519909,0.646524,0.77666146,-0.10428012,-0.41267267,-0.7659218,-0.91117,-0.5490811,0.21553138,0.6474582,-0.4977435,0.7856784,-0.50107807,-0.5575555,-0.78445137,0.26756418,-0.044747755,-0.6841175,-1.4690788,0.14434136,-0.37180814,-0.6747231,-0.650471,-0.27360535,0.26261696,-0.41425765,0.30194715,0.31168312,-0.31389913,0.059879918,-0.5245337,0.13797116,-0.23561351,-0.23961437,-0.44676206,0.7811202,-0.09083726,-0.059029657,-0.20239288,-0.61639607,0.4352261,-0.18282859,0.11622128,0.039221335,-0.8875694,1.0796824,-0.23620468,-0.17728831,0.24372722,0.5788362,0.72871584,-0.7216559,0.12258197,-0.3367236,1.1151661,-0.31752497,-0.20666048,-0.2869213,-0.056905113,0.7953412,-1.1261169,0.09122052,-0.38922745,-0.43757007,-0.29180318,-0.21565928,0.58614784,-0.39623085,0.13681568,-0.5469845,-0.5000628,0.4317345,-0.41055518,-0.107783146,0.38796467,0.43693155,-0.37098128,-0.057794333,0.4627624,0.06311923,-0.056516603,-0.16004832,0.37484878,-0.53380257,0.5433779,0.11840883,-0.12743813,0.19208492,-0.17713554,-0.1314756,0.033720348,0.2266279,-0.85449517,-0.34503227,0.07053577,0.5603202,0.45693144,-0.65626955,0.20992444,0.4480999,0.1559666,-0.29074815,0.33701155,-0.22709212,-0.65241545,-0.25396004,0.22943428,-0.8277987,1.1126355,0.15460213,0.12919538,-1.0491766,0.3690408,-0.565194,0.06139325,-0.4083549,-0.6016883,0.25764516,0.57439774,0.21704738,-0.15084934,0.5287654,0.1969635,0.44596973,0.6891783,-0.33829042,-0.25594932,-1.1381519,-0.5590516,0.3877428,0.29992113,0.35032916,-0.19441368,0.5108295,0.23464282,0.12941681,0.2216585,-0.11181219,-0.89436597,0.48550028,-0.34914798,0.055736568,0.53911453,-0.5660468,-1.0370347,-0.41319227,-0.086532645,-0.0016581533,-0.0139082605,-0.09305273,-0.106544726,0.22512013,0.41213918,-0.5881094,0.035189644,-0.4214388,-0.33631724,-0.5685753,0.09186385,0.35302064,-0.084054686,-0.8007498,-0.6808144,0.66833156,-0.90677404,0.28363994,0.09760703,0.3269827,0.39640638,-0.04569796,-0.868191,0.09307947,0.076674074,0.6454207,0.027586227,0.39802814,-0.94228214,0.3865032,-0.11910796,-0.08201069,0.8724306,-0.07382839,0.41442093,0.647379,0.06042378,-0.0892203,-0.3588733,-0.48744994,-0.18010333,-0.15135314,0.36158553,0.5314428,0.41778278,-0.23382595,-0.36824492,-0.16881649,0.2804139,0.19808571,-0.16580762,0.42918602,0.36212173,0.22588016,-0.21693026,0.22921944,-0.2809487,-0.08692637,-0.047278415,0.5967596,-0.059519984,-0.13171875,-1.0720204,0.08021265,-0.014650196,-0.6678521,0.5291362,0.5878928,0.24988036,-0.062888116,-0.08104711,-0.26360014,0.7128641,-0.16049442,-0.31740212,0.5275287,-0.07997694,0.7045592,0.26450783,-0.2741422,0.36734504,0.3945709,0.26418748,0.49178475,-0.20625852,-0.5307769,0.16758661,0.9232756,0.30126628,-0.28238806,-0.14504819,0.090779275,-0.22291936,0.42579874,0.3404981,0.410591,-0.42804256,0.4188186,0.2438447,-0.50118095,-0.18539855,-0.6710509,-0.23337844,-0.15678737,0.12103806,0.22695628,0.48596546,0.498953,-0.26633108,0.61303204,0.29258186,-0.50806797,0.33589694,0.3869846,0.6569705,-0.4670328,0.3715891,-0.19713667,0.39139417,0.00576483,-0.41288573,-0.17308061,0.6214981,0.8002644,0.06600402,-0.40864527,0.4502818,0.48408502,0.38907224,0.22315389,0.10568978,0.01519212,-0.61877245,1.1850376,0.46823412,0.32082072,0.5476753,0.002790544,0.067805976,0.6461177,0.39309132,0.7709925,0.48892236,-0.21387412,0.40708813,0.20621957,0.7116352,0.37470108,-0.33850548,-0.018532591,0.9422877,0.50775653,-0.88058937,-0.60997164,0.15080921,0.3602932,0.25190982,0.25451034,-0.6317439,0.009961885,1.1202711,0.17881235,-0.55335325,-0.23802862,0.15474917,0.32654965,0.66980445,-1.0280893,-0.5132355,0.15368569,-0.30559558,0.20226982,-0.18037803,0.3210533,-0.13655418,-0.32433853,-0.10418461,0.29464233,-0.19140273,-0.09906982,-0.050103843,0.143576,0.23729682,0.45507702,-0.41214544,0.12447804,0.2737894,-0.2451652,0.22819793,0.011413093,-0.22293644,-0.006338007,0.16946898,-0.4970736,-0.056155965,0.089102775,0.39059892,-0.522782,0.14290282,0.08582161,-0.4041592,0.06064804,0.3350064,-0.7181321,0.67667174,0.19009675,-0.28124216,0.17661098,-0.18104517,-0.5080152,-0.20371628,0.571993,0.96674705,0.07061574,-0.29391766,-0.6981942,0.40466982,0.15852095,-0.56820834,0.08207543,0.23250176,-0.6197952,0.47311905,-0.7350001,-0.5703548,0.77433753,0.01473375,-0.25426668,0.1291645,1.0550612,-0.64401907,-0.33029038,-0.6457981,0.28091285,-1.2306905,0.07539426,0.40359804,-0.022433875,-0.31152618,0.0697394,0.006787516,-0.40443677,-0.63772964,0.49281865,0.3041298
mat,-0.0030806912,0.2670493,-0.09396336,0.3321694,-0.15729165,-0.41006225,-0.18456061,0.9290985,-0.44666177,-0.39037496,0.19309577,-0.68005127,-0.1881528,0.35345584,-0.04155419,0.3315618,0.11129386,0.16583975,-0.14904876,0.42360494,0.48269576,-0.07033208,-0.5935826,0.1229413,0.31999114,-0.046520237,-0.100403726,-0.04236348,0.090913154,0.008926518,0.67660457,0.09991381,-0.25434697,-0.4493693,0.36210316,-0.35900375,0.19803968,0.6091266,-0.33589327,-0.120897055,-0.69018304,0.16755031,-0.15305659,0.29446316,0.60962516,-0.31333825,0.6115688,-0.3549097,0.70628023,0.0654882,-0.36202046,0.07516874,-0.361453,-0.47412324,0.11761449,0.9183336,-0.057614245,-0.35654777,-0.12030606,0.3638407,0.07369248,0.5110222,0.047175594,-0.5814234,-0.30920318,0.48044544,-0.4239783,0.7605861,-0.5779791,-0.22374721,-0.27335894,-0.11247924,-0.16696435,0.35561344,0.11035437,-0.24100927,-0.35496745,-0.06762719,0.3521955,-0.17521387,-0.58089674,0.58627224,-0.16771172,0.9195131,0.7196865,-0.07003683,-0.35175848,-0.027407479,-0.35157526,0.62648946,0.2769817,-0.2344947,-0.028404675,0.32526433,-0.120847605,0.25533268,-0.03525385,0.24816498,-0.63457364,-0.020198483,0.0896305,-0.028161217,0.5085357,0.34457326,-0.06656723,-0.7277333,0.10086211,0.23879375,0.14059217,0.76409686,0.059339136,-0.47038087,0.0665784,-0.04970975,-0.31749746,0.25693044,-0.013142542,-0.11696597,-0.17402627,0.40482417,0.1459679,-0.78171664,-0.06570435,0.68942034,-0.3650433,-0.18469404,-0.60364306,-0.15331014,-0.4544696,0.020476379,0.68293154,0.5927427,0.10649594,-0.54428816,0.024100518,0.51655513,0.75443333,-0.06986469,-0.62959266,0.4304928,-0.31185174,-0.134852,0.42332786,0.5128804,0.14729178,-0.041961305,0.11783787,-0.45033646,0.02396262,0.14399552,0.07341609,0.15868914,0.32481188,-0.4237764,-0.30946025,0.088239305,-0.15543397,0.40777874,0.040760264,0.010785337,-0.20483515,-0.5467871,-0.075541526,-0.04307672,0.1454425,0.30099696,0.09328693,0.17208703,0.058277257,0.7809996,-0.2778102,0.47622874,1.291705,-0.16283008,-0.58958614,-0.1301795,0.2604217,-0.15780838,-0.21541634,0.09203578,-1.1984575,0.5316037,0.031474363,0.03688902,0.7982856,-0.12285308,0.9066306,-0.6883785,-0.26726907,-0.20467432,-0.4424905,-0.36662316,-0.47893092,0.06473745,0.7429204,-0.38126153,-0.4088627,-0.50455815,-0.7198282,-0.7694514,0.16632105,-0.08705975,0.45963386,0.5640642,0.05902445,-0.2303859,-0.5315806,-0.28933117,-0.1501849,0.54680634,-0.22063093,-0.0018925681,-0.44942787,0.41714588,0.08569865,-0.26720157,0.14671315,-0.48668912,0.25978673,-0.1318341,-0.235197,0.004254547,-0.45164034,0.19691072,0.05058032,1.4173263,-0.23564585,-0.04110508,-0.013126276,0.9664622,-0.13205391,-0.025965104,1.2333319,0.3124679,-0.6916552,0.09705509,-0.60308397,-0.4131528,0.0056493916,-0.37210673,-0.38187978,0.056074847,0.77536005,-0.3638942,0.2518359,-0.014782991,0.21672006,0.20507933,0.093753606,-0.21484716,-0.13496321,0.26382974,0.28731418,-0.95310754,-0.4428702,-0.24831693,-0.14505738,-0.49070916,0.01080646,0.19778834,0.4495301,0.045159977,0.5253201,-0.19827648,-0.30103186,-0.6206837,0.17783451,0.07841934,-0.23753966,0.29301944,0.5834072,-0.6636762,-0.110043116,0.8092711,-0.68754,0.13761005,0.29127824,-0.3500165,0.30355662,-0.25255874,0.16789952,0.20782208,-0.6376809,0.43032053,-0.24164431,0.09020108,0.16931698,0.11285446,0.015937215,-0.59146696,0.06159635,0.51767564,-0.33623043,-0.38988274,0.10330214,0.13029344,0.3124845,-0.08193449,0.6393027,-0.38964716,-0.38568854,0.3542727,-0.04374741,0.7051402,0.124279715,-0.007541102,-0.027607767,-0.18365559,-4.1009393,0.27221605,0.11067011,0.009466704,0.63076687,-0.045519505,0.0513552,-0.06932391,-0.9251946,-0.12718831,0.06437568,-0.72021466,0.50432247,0.7699226,0.8941117,-0.047618907,0.14226946,-0.13760488,-0.26396602,0.36751908,-0.5913982,-0.51858926,0.039095886,-0.46544233,0.32722917,1.0440878,-0.22762214,-0.46031618,-0.31409773,-0.20050399,0.29988506,-0.14324613,-0.029310526,-0.16336791,0.21705182,0.02867802,0.36257616,-0.30458775,-0.40642944,-0.22613382,-0.119526275,-0.650834,-0.07518788,0.55538076,0.8245697,-0.13852061,-0.22675063,-0.40882188,-0.06691337,0.8246943,0.5278813,0.19722581,-0.23102207,-0.17722172,-0.04778217,-0.07262131,0.554549,0.24829979,-0.51055753,-0.600879,0.24168444,-0.4961321,-0.5285477,0.2586769,0.69495577,-0.40150973,-0.72919047,-0.07745835,0.23887059,0.3537472,-0.1500661,-0.321974,-0.5778255,-0.6006108,-0.18954635,0.46912113,0.25271642,-0.21938266,0.4379484,-0.33622894,-0.32794124,-0.89558053,0.014961696,-0.13245252,-0.61749214,-1.1109028,-0.047375925,-0.21326031,-0.8273939,-0.8709583,-0.0530001,0.34318107,-0.11361486,0.22846271,0.39229512,-0.38598582,0.1606556,-0.35027403,0.27330872,-0.3788827,-0.24440075,-0.52947444,0.47819796,0.43713504,-0.12000311,0.009080169,-0.64574045,0.622009,0.09663005,0.16543363,0.30559823,-0.5448855,0.7174087,0.019696161,-0.0628705,-0.24896714,0.40288645,0.6010271,-0.24467617,-0.26873705,-0.44877398,0.8307173,-0.2831064,-0.121629916,-0.27783328,0.004957815,0.5676141,-0.6472134,0.5264805,-0.36848637,-0.32503524,-0.18325016,-0.20725071,0.43461552,-0.29219675,-0.11744498,-0.45198458,-0.42724654,0.09555427,-0.1818985,-0.098046124,0.35527217,-0.099053375,-0.05411231,-0.03637471,0.32452703,0.46250647,-0.040168125,-0.22671884,0.36465883,-0.421525,0.24382894,-0.19838761,-0.28728738,0.10711846,-0.22929807,0.07803353,0.064501494,0.5658963,-1.2728509,0.08310129,0.114041865,0.79183626,0.6398577,-0.8357749,0.1614811,0.11900517,0.06857333,-0.28502324,0.33067998,-0.22590308,-0.2990412,-0.100157455,0.42965913,-0.61783373,0.9022135,-0.18654792,-0.14158976,-0.69916105,0.42595235,-0.16566445,-0.09972637,-0.49751088,-0.08266472,0.48176575,0.3711412,0.33304515,-0.22901578,0.28930557,0.07021073,-0.0657955,0.5365128,-0.15127273,-0.295542,-1.019962,-0.403259,0.43865785,0.082005225,0.40157163,-0.10287004,0.15065403,0.21901204,0.16057998,0.36010003,-0.04113494,-0.772992,0.40302494,-0.12673125,-0.12052418,0.21140125,-0.13698941,-0.9794823,-0.44891587,0.12252343,-0.25235716,0.119305596,0.06685959,-0.02195479,0.17937043,0.0019004885,-0.2834823,-0.08169479,-0.2802375,-0.21778521,-0.80181193,-0.29234216,0.19752423,0.08338875,-0.5393972,-0.27708218,0.55262667,-0.2637475,-0.17538227,-0.15283708,0.41827822,-0.0097076325,-0.31215474,-0.7552536,0.18588758,-0.24527286,0.44216034,-0.03262551,0.4653356,-0.7718333,0.09403807,0.23072717,-0.16745153,0.69637656,-0.07263718,0.042084552,0.1607771,-0.08635899,-0.6417896,-0.18417981,-0.11620198,-0.36098382,-0.22833584,0.39634216,0.2513198,0.25602466,-0.10445065,0.12190481,-0.13054447,0.24237713,0.24201524,-0.2631327,0.38692093,0.44700003,0.51502126,-0.64458823,-0.1429851,-0.52588725,0.02657112,-0.30071947,0.47750902,0.038289007,0.1546564,-1.0098476,0.010900118,-0.08683762,-0.8099058,0.39802536,0.41389245,0.21022722,0.010198277,-0.22744957,-0.29562327,0.22404052,-0.20148547,-0.3435671,0.39150164,0.28168324,0.5288356,0.055883914,-0.17146353,0.27750877,0.61644036,0.2393807,0.3848135,-0.043688774,-0.5739319,0.16325851,0.9345206,-0.039029613,-0.016341887,0.009858401,-0.02128561,-0.35132605,0.06273733,0.7468837,0.23768744,-0.38185862,0.4023571,0.25101054,-0.38179228,-0.1099152,-0.10730268,-0.34365264,-0.26462004,0.36143184,0.34709334,0.5787099,0.58566743,-0.10109564,0.3905986,0.09066294,-0.3596871,0.25812256,0.9647809,-0.16419648,-0.21734433,0.07960955,-0.16243401,0.23519291,0.07302988,-0.2146612,0.15806496,0.730211,0.37021527,-0.20697822,-0.21080127,0.28051803,0.21843618,-0.23442887,-0.02132556,-0.10179669,0.079886995,-0.5375652,0.88509595,0.27795246,0.25854257,0.59332705,0.0034389836,-0.32699013,0.3165827,0.088721916,0.66186297,0.4652955,-0.44339138,0.5639058,0.1063266,0.6598937,0.2336931,-0.058822405,-0.22498208,0.6098254,0.40793586,-0.59597087,-0.346087,0.36891228,0.1450829,0.18084668,0.106812656,0.03663521,0.056378078,0.6230862,0.12052319,-0.46851638,-0.26899,-0.22361133,0.2360495,0.20601414,-0.6174614,-0.14136519,0.0781722,0.0066860244,0.02566055,-0.38426986,-0.2489926,-0.119710825,-0.74303305,0.09829461,0.028617153,-0.2545646,0.25095505,0.034144036,0.107212454,0.28973058,0.24860752,-0.32310876,0.091203965,0.15916593,-0.17098795,0.07276784,-0.022026671,-0.1801579,0.038978018,0.17246401,-0.2929515,-0.2148046,-0.17853345,0.19310254,-0.56189483,0.49626455,0.1002955,-0.19984205,-0.04022305,-0.16082534,-0.4242964,0.3064281,0.31459525,-0.40249977,0.20048606,-0.03795953,-0.27231637,-0.5447443,0.43069115,0.4480663,0.2753743,-0.21503657,-0.5206441,0.34204543,-0.22044493,-0.2995414,0.114409454,0.34962082,-0.48218554,0.44564548,-0.42523023,-0.6590857,0.6043976,-0.30357322,-0.38829422,-0.10868383,0.7546966,-0.60671127,-0.2694771,-0.35962883,-0.11741844,-1.0593829,0.06707253,0.30274197,-0.21192682,-0.26492336,0.377405,0.105121434,-0.2998206,-0.6447211,0.011562956,0.31564793
.,0.14461064,-0.46186933,-0.123611316,0.39830238,0.17510997,-0.605341,0.10761907,1.723604,-0.2987137,-0.5465759,-0.12159217,-0.759418,-0.6605919,0.8286474,0.2303419,0.61208135,0.32608727,0.043099545,0.21020098,0.34200412,0.49884543,0.37484363,-0.95723253,0.51674086,-0.09377114,-0.17242767,-0.4621879,-0.48199874,-0.37373936,0.35211128,1.0198314,-0.068803824,-0.5919704,-0.018924782,0.052686576,-0.5843944,0.705671,0.48653477,-0.13481571,-0.5097677,-0.778237,-0.42861763,-0.025241047,0.17144822,0.118929036,-0.15426266,0.97696453,-0.5013517,0.38368186,-0.21145685,-0.44326574,-0.12624489,-0.22245258,0.58515763,0.25662073,1.1483173,0.19551824,-0.67407376,-0.55059344,-0.0031197853,0.62673324,0.7699044,0.17599449,-1.0532376,-0.057501018,0.082705036,0.4544581,0.75225705,-0.6383332,-0.4874133,-0.1633245,-0.514698,-0.04096274,0.14551762,0.24841669,-0.0616093,0.015645046,0.41820413,0.25581267,-0.6242666,-0.95758295,0.8110844,-0.60069567,0.783849,0.38922745,-0.3852459,-0.30773932,-0.11995221,-0.61168677,0.77026224,0.52496594,-0.91621304,0.42950076,0.12617448,-0.23677656,-0.23189242,0.24991164,0.016638132,-0.3091453,0.1311065,-0.22934824,-0.57137597,0.6571703,0.39670974,-0.1149353,-0.0653013,0.30865508,0.014489783,0.22850323,0.5237017,-0.17747028,-0.7530938,0.36667153,-0.14976145,-0.22409075,0.5074982,-0.28811198,-0.3801153,0.13914628,0.5415571,0.10076732,-0.91467124,0.25676107,0.96052647,-0.49987194,0.06645164,-0.40409377,-0.1611878,-1.0405613,-0.37555984,0.6034677,0.8851864,0.2634724,-0.9485643,-0.014982134,0.7905547,0.65891045,-0.09568591,-0.57103896,-0.016059404,0.36887753,-0.09489297,0.9906606,0.087115,0.27703193,-0.48096433,0.017951228,-0.92026013,0.33162472,0.6477147,-0.32552955,-0.18203987,0.32299647,-0.5956249,-0.24490967,-0.052372627,-0.11250232,0.906539,0.22790763,0.13940385,0.6059103,0.1033114,-0.55319965,0.107593365,0.098725006,0.94724154,-0.1628608,1.4093227,-0.06767275,0.48394886,-0.6193778,0.002446101,2.0870855,-0.36607072,-0.844979,0.19191399,0.36218223,-0.0270189,0.45944455,-0.3295196,-1.459426,0.9566586,-0.2093729,-0.6023931,0.7557041,-0.3951384,1.1405058,-0.26994914,-0.8798241,-0.22100253,-0.13766788,-0.6006469,-0.94247955,-0.62653744,0.7403169,-1.1376293,-0.8888432,-0.8731505,-0.2635469,-0.6393692,0.36924046,0.23184875,1.1443741,0.5884652,0.645297,-0.11036529,-0.66559446,-0.6040618,-0.012247516,0.69413483,-0.50261194,0.6839611,-0.42984968,0.15869796,0.21363989,-0.3916984,0.07846228,-0.18109043,0.27908432,0.18709803,-0.504385,-0.46092644,-1.1461457,0.36306,-0.28174418,1.7799264,-0.5369928,-0.0712998,-0.100505956,0.2860709,-0.44754493,-0.5394785,1.5287876,0.5599579,-0.33386025,0.34895554,-0.9728712,-0.018338839,0.19110148,-0.36517075,-0.5033441,0.114713095,1.0239654,-0.53072196,-0.52339685,0.8119232,0.7750408,-0.636331,-0.41648698,-0.5989269,-0.4381017,-0.5358283,0.2247805,-1.5309602,0.29342893,-0.20013085,-0.34708074,-0.9368956,-0.24114221,0.20376952,0.19084069,0.08955224,1.1002929,0.12460943,-0.433569,-0.80629194,0.622733,0.28517723,-0.78990525,0.39949164,1.0567626,-1.1185651,0.099641256,1.2983404,-0.2390699,0.62541646,0.47967425,0.18773355,0.08714878,0.47818425,0.66918176,0.50196534,-0.761818,0.30238563,-0.55840653,-0.30120715,0.10227644,-0.761673,-0.26317346,-0.9773356,0.13116738,0.65578043,-0.36832988,-0.44244218,-0.40776893,0.4795095,-0.101083994,0.36087364,0.06412808,-0.29152113,-0.79322183,-0.046557,-0.710267,0.44372132,0.35510427,0.06554791,-0.10277376,-0.30577117,-1.5347687,0.32381082,0.5921502,-0.31791225,-0.02233531,-0.093946375,0.5687868,-0.20178956,-1.2969928,0.29499093,0.8079792,-1.7389088,0.4484653,0.7946943,0.9196522,-0.66168255,0.029017298,-0.44172814,-0.6722226,0.90359133,-0.79480314,-0.83061635,0.52064174,-1.0302143,0.5991364,1.3590435,-0.42457286,-0.43491155,-0.93504333,-0.22832704,0.27001464,-0.3296301,0.5021975,-0.26316527,0.08570451,0.54563427,0.40187764,-0.30699977,-0.13176382,-0.6107246,0.08118026,-0.5788412,0.12232001,-0.08900584,1.5883442,-0.058035627,0.7347932,-0.111881256,0.44064257,0.77922755,0.28947082,0.088906035,-0.26298103,-0.23721328,-0.40112832,-0.009832092,1.1665319,0.34730023,-0.6379934,-1.1985352,0.12658632,-0.8775186,-0.6949785,0.7475195,0.08729802,-0.51863,-0.5606832,-0.046451,-0.13643709,0.54167616,0.15760641,-0.48168677,-0.4528943,-0.8524918,-0.44188792,-0.004185427,0.061963163,-0.3715224,0.6112105,-0.29274467,-1.0990463,-1.181785,0.16270615,-0.18294235,-0.044041045,-0.9518983,0.48743615,-0.4238646,-0.88560045,-1.0474434,-0.5597598,1.2579579,-0.11422631,1.0598836,0.61406726,-0.62355375,1.2465079,-0.76881963,0.4451032,-0.63051504,-0.47582337,-0.42456782,0.4159385,0.28987426,-0.004013381,-0.049870398,-0.43714976,-0.1155866,-0.55667543,-0.3203638,0.33570963,-1.1691755,1.3620169,0.36621064,-0.15355027,-0.0056850165,0.35138676,0.7317884,-0.27479514,0.17654571,-0.5580745,1.6711098,-1.0574732,-0.3135375,0.10195953,-0.30738786,-0.0320301,-0.83055377,-0.44521517,-0.49565727,-0.32312655,-0.15064676,-0.26248667,0.22678043,-0.0743648,-0.0025686703,-0.60053706,-0.17007725,0.551407,0.037624214,0.03814816,0.67969364,-0.3611103,0.1347801,0.25159693,1.5846092,0.19863673,0.52376217,-0.19247591,0.5468684,-0.7070356,-0.27749497,-0.4380928,-0.2033348,-0.10172171,-0.34220862,-0.069006294,0.1447041,0.5484172,-1.451654,-0.21095464,0.459237,0.29205176,0.7017289,-0.5832528,0.7193569,-0.17973238,0.7486101,-0.15833224,-0.015375047,0.011425293,-0.18149686,-0.14975302,0.16279308,-0.6496245,0.8509373,-0.7226036,-0.7154208,-0.7824955,0.6409391,0.1084064,-0.08214939,-0.22095942,-0.9599815,0.72654474,0.71903324,-0.050605547,0.050371934,0.45919582,0.8241663,0.47547665,-0.18385436,-0.6552512,-0.73184645,-1.0009322,-0.26924354,0.8208215,-0.67802936,-0.016103296,-0.17023708,0.58579046,-0.23120572,0.065344244,0.39622644,-0.13613681,-0.572692,0.021312324,-0.09748152,-0.23507611,0.7438133,-0.2337074,-0.7209654,-0.79719007,-0.20871222,-0.76441985,0.2630949,0.097097695,-0.38266882,0.104570456,0.41963962,-0.6369627,-0.49700502,-0.40567684,-0.40305194,-0.7550442,-0.008056429,0.15045981,-0.66901433,-0.8799779,-0.77544236,0.8060019,-0.22864372,-0.20701075,-0.05252535,0.7129642,0.14062099,-0.7226867,-0.72587574,0.3425272,-0.17754148,0.46609014,-0.77889436,0.27567276,-0.72281605,-0.2195687,0.44926766,-0.58348256,0.74294925,0.7158543,0.61966026,-0.118871935,-0.47353932,-0.05045003,-0.038245954,0.44565937,-1.0987737,-0.55157304,0.7883066,0.5371348,-0.21303518,-0.004287553,-0.040409867,0.037251975,0.6883422,0.63498056,-0.47456697,0.28413576,0.87264115,0.5163199,-0.45361695,-0.3397669,-0.29920033,-0.29873455,0.01667481,-0.2697826,-0.2205206,0.14757206,-1.4415944,-0.38061962,-0.4757341,-0.75096023,0.5082643,0.7359358,0.17421104,0.106954455,-0.6644606,-0.32854787,0.5148795,0.113927364,-0.71054256,-0.6395773,0.119434685,0.33483362,0.21862459,0.23050898,0.61902237,-0.00065727456,0.33253396,0.29289672,0.14311136,-0.051627953,0.06618656,0.5709466,0.14483415,-0.6127673,-0.05879279,0.37295192,-0.57121587,0.69074386,0.9633864,-0.21992117,-0.6236368,0.7962733,0.8858157,-0.40898567,-0.5537815,0.11283109,-0.63787395,0.025941852,0.4410718,1.0131541,0.4468149,1.3615967,0.013134267,0.3576758,0.7860118,-0.36174226,0.6449978,0.78249705,0.38781288,-0.2783448,-0.08372212,-0.5031101,0.89691585,-0.4093904,-0.49725974,0.55948836,0.9860856,0.27244538,-0.68932873,0.16675106,0.43552837,0.6593827,0.32284638,-0.323682,0.022597756,0.31124786,-0.6229239,1.1534936,0.6433298,0.47100028,0.51930547,-0.009797105,-0.4372814,0.3704877,0.051323254,0.81001294,1.0409644,-0.5975873,1.036281,0.43170708,0.9375577,0.5664765,-0.11471089,-0.08057752,0.9890581,0.042038813,-0.26589063,-0.20012456,-0.020124136,0.70112664,0.5775354,-0.27363488,-0.43746263,-0.52126443,0.79857653,0.37951636,-0.5186367,-0.68868893,-0.6945519,0.15633342,0.2562289,-1.3233918,-0.6971086,0.7528338,-0.9264291,-0.5458628,-0.102591984,-0.037760984,0.32199785,-0.46484855,-0.65153617,-0.5035753,-0.21986455,0.05674715,-0.6598707,0.43899274,0.10774375,0.508525,-0.28647223,0.5081217,0.07479501,0.12776877,0.066990696,-0.44609308,-0.46943521,-0.02248359,0.38827676,-0.731493,-0.26161075,0.36213928,1.4838811,-0.68794113,0.17580795,0.25217557,0.19217652,0.18858054,-0.34348184,-0.86958647,0.5075923,-0.2365013,-0.49562025,0.28293216,0.42780155,-0.62315744,-0.5046339,0.4176712,0.67011744,0.23675969,0.21652961,-0.5688317,1.2372806,0.16660422,-0.8307325,0.7670787,0.021639535,-0.6643374,0.22931473,-0.444898,-0.813558,0.61727864,0.029667815,-0.8483205,-0.68077445,0.9616187,-0.7883323,-0.19321007,-0.61447513,-0.3417667,-1.1768382,-0.042632103,0.42957914,-0.48270264,-1.114125,-0.01590656,-0.20861067,-0.00044574685,-0.41559485,0.8127878,-0.043281965
another,0.109629765,0.09992731,-0.19557396,-0.23930104,-0.3230578,-0.051180996,0.81578606,0.69216603,-0.27769366,-0.14743738,-0.35124546,-0.43868667,-0.7692241,-0.018525423,-0.115052626,0.7590072,0.23344296,0.62076247,0.07380377,0.084242485,0.9129407,0.35175747,-0.7047558,-0.085258245,1.1075572,-0.26715836,-0.097365476,-0.52561,-0.5031549,0.1379107,-0.0841314,0.31121576,-0.06450981,-0.20957811,-0.5052492,-0.81621516,0.5309151,-0.24272034,-0.1503672,-0.41600496,-0.7341217,-0.61300546,0.25501922,-0.010045489,0.6229216,-0.66925025,-0.39632222,0.43727508,-0.12585479,0.40660205,-0.9894328,-0.021255756,-0.101972826,0.6690413,-0.172543,0.80740917,-0.07006559,-0.6995345,-0.019038843,-0.7840339,-0.15712771,-0.086177304,0.08405859,-0.9077084,0.4078485,0.7038515,-0.050883807,0.21607389,-1.6151708,0.15981124,-0.6399466,-0.9185826,0.16623254,0.25639233,0.08433628,0.44458744,-0.57357204,-0.0041925022,-0.47223887,-0.95171726,-0.6190635,0.28388983,-0.4312407,0.47091126,0.6424895,0.31265312,-0.4188378,-0.021771237,-1.0117933,0.92453647,-0.49039185,-0.7033706,-0.115057774,-0.06055177,0.5122956,0.22191152,-0.20197965,0.17894116,0.13154845,0.34371197,-0.25837493,-0.8060395,0.8254419,0.44500628,-0.70839334,0.15294968,-0.50598663,0.19440547,0.3762879,0.7002424,0.45199406,-0.551208,0.21360725,-0.33667728,-0.12959695,-0.26012793,0.1436263,0.06541157,-0.2533264,-0.5506054,0.100141294,-0.6580553,0.019831518,1.1832228,-0.47798374,0.28047088,-0.6254484,0.32959133,0.17683935,-0.26490656,0.2264608,-0.17149824,0.71381855,-0.20908971,0.082599305,0.3179746,-0.30395967,0.16960719,-0.73849463,0.036432344,-0.53465444,0.08526546,0.9103234,-0.20052163,1.2736953,0.71446085,-0.17339185,0.13237818,0.53233,1.2623099,0.5192626,-0.3545219,-0.33534536,0.02847561,-0.3034855,0.40722603,0.23844807,0.1458315,-0.15126105,0.066374324,0.9682004,0.3404159,-0.28425798,0.28212672,0.45721403,0.29706475,-0.84120375,0.83041364,-0.1265236,0.157886,-0.2257435,-0.1359696,1.2969475,-0.2860962,-0.077243544,0.5077029,0.31809494,-1.1064354,0.67988664,0.1281837,-1.5092102,1.142532,0.81370336,-0.22966829,0.029803343,-0.03703368,-0.22330438,-1.0013103,0.5473307,-0.7111533,-0.19818182,-0.34301934,-0.7708008,-1.225268,0.34504807,0.11659014,-0.16757822,-0.099658296,-0.69323677,-0.30986288,0.16842884,0.123173565,-0.1689415,0.25542453,0.690293,-0.5754391,-0.2507023,0.04785808,-0.5371829,0.3460464,-0.3586722,1.2487264,0.6160278,0.29484954,-0.16384305,-0.36633882,-0.08932381,-0.45776704,-0.30311394,0.20367746,-0.1736828,-0.5903634,-0.5460973,0.38689858,-0.6926817,0.95640606,0.38070768,0.0073366608,0.9126252,0.55006504,0.8307434,0.27890423,1.3539569,-0.24233738,-0.5215627,0.23465478,-0.123961516,0.3340802,0.17358734,-0.28852412,-0.041404977,0.3940464,0.1832437,-0.58784884,-0.05643863,-0.71982396,0.71991605,-0.21603581,-0.029256536,-0.091874816,0.11256576,-0.38410568,0.24580227,-0.5006079,-0.20143847,0.34764594,0.0947244,0.41888478,-0.40081933,0.40556672,0.14665289,0.10024458,0.05391171,0.20066142,-0.6957665,-0.44905743,0.66700536,0.46530902,0.39446482,0.35127822,-0.50454885,-0.760633,-0.11320704,1.2200187,-0.072633445,0.026509326,-0.33145308,0.48161495,-0.057571594,-0.2865631,-0.5526341,0.21365617,-0.10650818,-0.24569596,-0.41434288,-0.5889154,0.07190948,0.1612747,-0.6557334,-0.15169454,-0.2117468,-0.34280235,-0.5641987,-0.6987355,0.38998005,0.28677106,0.61786383,0.41630593,-0.0357441,-0.69289476,-0.012572839,-0.994822,-0.22892056,-0.08808366,-0.5741725,0.5294839,0.13128254,-0.3105756,-3.0801044,0.22462906,0.57595706,-0.008002513,0.16496563,0.17036988,0.25495675,-0.49889675,-0.149545,0.23378164,0.14435276,-1.1715946,0.21530582,1.2166489,0.27972448,-0.19598077,0.12261798,-0.017148154,-0.3519668,0.61285955,0.10215856,-0.07940956,0.19828244,-0.58456135,0.6618846,0.7938736,-0.76355416,-0.19660614,0.13400228,-0.7168152,0.3409177,-0.23476173,0.56928873,-0.74581534,-0.6654896,0.38754326,0.25343952,0.028532183,0.31163627,-0.34802514,0.115958884,0.08820424,-0.040662445,-0.42384762,0.89503145,-0.143772,-0.48155788,-0.80384606,0.0080829775,0.29617104,0.005991346,0.14931034,0.56490046,0.27396142,0.7366662,0.027907932,0.11177962,0.35959178,0.023513528,-0.28171197,0.28130043,-0.5940535,-0.101103365,-0.09730509,0.1863004,-0.9530738,-0.11559107,0.22623351,-0.25769773,0.58903193,-0.7612147,-0.1018685,-0.36625788,-0.4256288,0.069130264,-0.88025516,0.47121468,-0.8353905,0.1046432,-0.33774146,-1.1645888,-0.08717264,-1.0002584,0.19768196,0.007259676,0.21948962,0.277335,-0.14513816,-0.49144545,-0.60643023,0.26146227,0.5241707,0.6375268,0.89031094,-0.29238814,0.17459472,1.1382614,-0.72675824,0.5997571,-0.58041465,-0.288698,-0.3109171,0.45152712,-0.14997166,-0.4293925,-0.1429935,-2.1356397,0.039553013,0.31006834,0.9756691,0.04113718,-0.1411887,0.2817673,-0.5244592,-0.4213512,0.19417167,-0.03667877,0.75284183,0.47513014,-0.21156035,-0.30229148,0.3431662,-0.70717275,-0.0011214707,-1.0737609,-0.44055548,-0.40677413,-0.12501624,-0.010019486,-0.5259629,-1.4859446,-0.2881728,-0.3860383,-0.12473718,0.17618519,-0.6148285,0.49760833,0.55204827,0.10863129,-0.12823856,0.23469804,0.010753038,-0.89704543,-0.339201,0.32393,1.0879277,-0.04828553,0.2909591,0.054434452,0.57795846,-0.58291227,-0.10759828,-0.09862378,-0.8704202,-0.17875022,-0.9114707,-0.2213226,-0.2047132,0.029211093,-1.1908221,0.36395392,0.15714854,0.3669692,0.19436753,-0.68834424,0.12723856,-0.47977978,0.28736618,-0.7454729,0.18283911,-0.48564312,-0.09161066,0.32769027,0.043331474,0.29659253,0.55151886,0.5654546,0.116354056,0.41321293,1.033313,0.15653898,0.41299912,-0.096817434,0.65387183,0.62590915,0.17357479,0.20399188,0.46307823,0.30528414,-0.2132602,-0.6707357,-0.3383961,-0.3238408,-0.18180872,-0.5787687,-0.25916398,0.38207746,-0.57435113,0.08423905,-0.40278655,0.79801595,0.34012827,0.27627924,-0.038508244,-0.082043074,-0.19343862,0.32769594,-0.16246068,0.25770843,0.36837915,0.5034582,-0.86684936,-0.14337568,-0.7564944,0.4516478,-0.13878477,0.36143604,0.104507715,-0.08452386,-0.5754707,-0.7620804,-0.51329875,0.23497121,-0.040383443,-0.0073322477,0.075183354,0.04263398,-0.12966686,-0.23010607,-0.25225392,0.4118872,-0.4600628,-0.07850162,-0.03330297,0.16555388,-0.5704751,-0.24063689,-0.76646584,0.19728352,-0.7497031,0.28567076,-0.28315908,0.50521725,-1.4511161,0.18570516,0.1756056,-0.17694287,1.0218937,0.6570656,0.114204034,0.15259999,-0.31525972,-0.58789235,-0.26277435,0.2713602,-0.79986364,-0.7103914,0.044531595,-0.43650162,0.40630507,0.2643856,-0.15163657,0.43837485,0.6470132,-0.23790294,0.23123834,0.30119944,0.957638,0.47569245,-0.46784452,-0.30445278,-0.46546453,0.2357696,-0.3530489,0.08031287,-0.30462503,-0.59272414,-0.65763044,0.11430731,-0.08049836,-0.480626,-0.11343147,-0.1913243,0.2436755,0.3134005,-0.049916428,-0.23971358,0.2602081,-0.25767893,0.12952681,-0.34190586,0.45013472,0.42022184,-0.115352064,0.16486716,0.26929066,0.78084224,0.5619991,-0.4734947,0.11448323,-0.9074831,-0.03142237,0.42828807,0.12867652,-0.54474306,0.09702499,0.5681187,-1.0733238,0.42282158,1.2135786,-0.3814485,0.06187783,1.1888907,0.81727767,-0.068181634,-0.48419893,0.03433738,-0.1985375,-0.6424265,-0.10157851,0.36569282,-0.37751797,0.83949643,0.51204586,-0.2836889,0.6670221,-0.04045542,0.119439095,-0.04227622,0.22065224,0.069283694,0.6211676,-0.5828638,0.6639758,-0.652855,-0.46508554,0.018799467,1.0469224,0.06860546,-0.16812547,0.28773412,0.69074285,0.004507349,-0.2610728,-0.5009656,-0.4565194,0.042132925,0.15982759,0.5990599,1.2037607,0.5496978,0.7872947,0.3707865,0.17985466,-0.33132184,0.46141094,0.5185245,0.60321754,0.025006846,0.524193,0.0020350215,0.2544046,0.3835924,-0.5509753,-0.036132805,-0.16420527,0.75256723,0.40672836,0.16308099,-0.097753786,-0.15385781,0.43931288,-0.5178016,0.40653232,-0.7848901,0.96125144,0.07950958,0.30159155,-0.96097845,-0.045126315,-0.7053597,0.7507834,-1.0804651,-0.0179134,-0.18544477,-0.5220981,0.03413248,0.026206188,-0.054537896,0.36739144,-0.23899962,-0.8851622,-0.14154828,0.14313222,0.54194,0.23189206,0.3592786,0.24690603,0.6717986,-0.3101019,0.6574838,-0.29834664,-0.04366244,0.25322494,0.28126633,-0.074654266,-0.0061063063,0.22821546,-0.18174365,-0.23183016,-0.17142802,0.5060214,-0.62280697,0.28243548,-0.35933116,-0.19267495,0.14318897,0.28727418,-0.46720523,0.9175198,-0.12873931,-0.07935372,0.65835404,0.64871234,-0.088213235,0.30034456,-0.5472808,0.41030365,-0.45715106,-0.14458998,0.11189732,0.6292249,0.44428322,0.6324771,0.03920792,-0.102546185,-0.421443,0.12911844,0.29136568,-0.3988767,-0.42943022,-0.012873668,0.22235718,0.0123924,0.02293663,0.44397968,-0.23001361,-0.42288655,-0.751452,-1.3414142,0.51324165,-0.20452386,0.19615267,-0.5507392,-0.26628014,-0.26179945,0.5944452,-0.2154324,-0.8984513,0.67707014
example,0.15080811,0.19513412,-0.14367531,-0.31567252,-0.28181925,0.05922921,0.66403425,0.649051,-0.2743043,-0.21495844,-0.3116027,-0.58596575,-0.8689826,0.02243993,-0.15489432,0.7277571,0.10156944,0.7172074,0.057635166,0.114755,0.9853665,0.27264845,-0.76522446,-0.007908369,0.9356869,-0.2974755,0.036234565,-0.45085692,-0.5696741,0.013685735,-0.11813321,0.28282753,-0.06251675,-0.19667864,-0.7376426,-0.7546577,0.43163356,-0.30810723,-0.09284116,-0.2769941,-0.5266168,-0.39718595,0.26409006,0.025555035,0.5545954,-0.6197598,0.15456043,0.33377865,0.099953674,0.28081375,-0.94751894,0.18177341,-0.17456739,0.5332106,-0.23469134,0.7119906,-0.118124835,-0.7939258,0.109669775,-0.8729936,-0.22546598,0.002946163,0.27718747,-0.93875134,0.27437332,0.74377733,-0.22526464,0.10952569,-1.5287106,-0.017520994,-0.52752686,-0.6878129,-0.013100234,0.24829966,0.10880106,0.3263642,-0.57040715,-0.07864323,-0.26546094,-0.9096224,-0.3853532,0.2469023,-0.58095354,0.4253914,0.52121407,0.3853728,-0.36429775,0.12964289,-1.0353292,0.6327924,-0.3084591,-0.71288955,-0.16455802,-0.016179917,0.58813053,0.18650702,-0.20466079,0.18029413,0.2288723,0.25399292,-0.10268687,-1.006767,0.793167,0.50908566,-0.82853764,0.054395337,-0.5242157,0.20448306,0.33895102,0.7076621,0.40150127,-0.35457098,0.09069299,-0.16594353,-0.19535558,-0.31465602,0.08932709,0.15720463,-0.28966153,-0.2677532,-0.21179338,-0.521765,0.15910925,1.1983854,-0.5656706,0.39743316,-0.62321573,0.35484463,0.20308028,-0.3359193,0.090884335,-0.2685499,0.6839682,-0.22051656,0.13887918,0.17214778,-0.22918083,-0.008929161,-0.6880808,0.1698634,-0.6500812,0.18201837,0.92241377,-0.21891566,1.2245016,0.68139833,-0.23054512,0.10374384,0.67827356,1.2426524,0.4210574,-0.30676764,-0.35616347,-0.0055453894,-0.38360944,0.45063615,0.17087373,0.20137109,-0.19938652,-0.012678631,0.95287,0.4934358,-0.24185665,0.43251696,0.5234993,0.12678814,-0.8658868,0.76411813,-0.30298832,0.17129797,-0.299485,-0.18880978,1.0752032,-0.31344917,-0.052253623,0.43629667,0.43647912,-1.1889663,0.66217667,0.23253213,-0.97226316,1.2569895,0.8048425,-0.27186403,0.028508496,0.065745406,-0.25126472,-0.9233262,0.3682982,-0.44310057,-0.05028649,-0.35359797,-0.6471263,-1.2434788,0.46730626,0.20789778,-0.43324715,0.07158478,-0.62060654,-0.28686848,0.15806876,0.060884856,-0.19348903,0.17058675,0.61470944,-0.5017106,-0.27060544,-0.014926584,-0.6461549,0.2915687,-0.4298972,1.1582245,0.72589296,0.20024341,-0.1675295,-0.43257254,-0.081827745,-0.39208645,-0.18466488,0.19841713,-0.0065984293,-0.51516163,-0.57768345,0.4162007,-0.6502181,0.89014494,0.34777445,0.047028475,0.85424024,0.7286418,0.7245343,0.17815809,1.2980665,-0.40581682,-0.2873576,0.16273248,-0.13817495,0.34341997,0.16516289,-0.0021672181,-0.096017554,0.4783376,0.051299956,-0.56495446,-0.099898204,-0.7078795,0.56903905,-0.19966333,-0.075464554,-0.12314581,-0.10021704,-0.36514264,0.27822062,-0.44800884,-0.115875915,0.3088708,-0.064660005,0.41487575,-0.31313306,0.54401106,0.20617844,0.08031502,0.019461524,0.26708978,-0.53367347,-0.4003109,0.682407,0.44204137,0.5764741,0.4911261,-0.359763,-0.6836026,-0.08573756,1.1372395,0.05740946,0.1772333,-0.37099403,0.3691821,-0.17837356,-0.3097761,-0.5063078,0.2746293,-0.020104202,-0.33852172,-0.45826235,-0.6638459,0.06957445,0.09396799,-0.7727173,-0.12190263,-0.15997685,-0.13862059,-0.53722554,-0.90123427,0.37934297,0.42067853,0.58081025,0.22179417,-0.0765217,-0.58330536,0.104110554,-0.97889656,-0.22850679,-0.12647167,-0.4743483,0.60668176,0.088125125,-0.38647822,-3.3142383,0.14776741,0.5000993,0.07035901,0.12324668,0.037293155,0.23564282,-0.42182386,-0.18579555,0.27317867,-0.001832137,-1.1280926,0.2469726,1.2310586,0.38269603,-0.055361573,0.24244638,-0.049796186,-0.3313879,0.48110133,0.19992048,-0.07425901,0.16518283,-0.590651,0.538247,0.8130846,-0.9402841,-0.14082769,0.09266295,-0.6197183,0.4365569,-0.05996575,0.5518559,-0.8334039,-0.509998,0.18533754,0.24280854,0.039213367,0.22910249,-0.30907026,0.20161729,-0.23744506,-0.16116075,-0.24835166,0.6668143,-0.1650961,-0.57664585,-0.9031856,-0.01372618,0.22902918,-0.15271384,0.05799179,0.5694617,0.32541373,0.8064281,0.028532043,0.20373997,0.46975803,0.0978188,-0.19637053,0.00096953084,-0.6764426,-0.23963568,-0.18722183,0.032764025,-0.8036458,-0.23855549,0.3829892,-0.3639172,0.48061743,-0.8218279,-0.38713956,-0.31770733,-0.36082077,-0.04950192,-0.92843145,0.56111306,-0.8730748,0.1776808,-0.32211134,-1.1385984,-0.100394525,-0.8152,0.15465815,-0.111209124,0.21771851,0.3096473,-0.16896723,-0.4313896,-0.545118,0.44690502,0.5841007,0.56220144,0.74927366,-0.31754595,0.18003993,1.0975178,-0.76514095,0.48409107,-0.5227899,-0.24370623,-0.3251149,0.43442905,-0.22481918,-0.2492552,-0.20521961,-1.8854915,0.03184274,0.33787128,0.950078,0.13997272,-0.055573434,0.14368378,-0.46489495,-0.50545377,0.29074237,-0.07726108,0.5375041,0.42366144,-0.29774654,-0.37869582,0.2867609,-0.81146705,-0.11294678,-1.2005383,-0.3599977,-0.34333348,-0.007500861,-0.0685254,-0.39219207,-1.5176487,-0.25097325,-0.32149696,0.011082886,0.24365069,-0.6134784,0.38737702,0.5124552,0.32998878,-0.18798561,0.12573731,-0.12028591,-0.8482428,-0.47929847,0.5668013,0.9901547,0.13286214,0.39803833,0.16145943,0.56614304,-0.59364086,-0.12848382,-0.14333384,-0.75187504,-0.35242817,-0.68668145,-0.009637492,-0.17023362,0.04938322,-1.1205605,0.38571844,0.17228425,0.6003103,0.21468842,-0.7080252,0.21743909,-0.45370567,0.3082039,-0.6398899,-0.17406714,-0.48162088,-0.14151195,0.41843912,-0.067167036,0.21982017,0.49925393,0.606738,0.111976765,0.39879814,1.0831887,0.15718435,0.56812155,0.0021848208,0.4349933,0.47664744,0.15111247,0.11990603,0.56113726,0.34532997,-0.22195563,-0.58286864,-0.23579495,-0.18047155,-0.15657395,-0.46587768,-0.30399695,0.44929755,-0.56553286,0.046057686,-0.42794698,0.623614,0.361705,0.16961554,-0.22446902,0.016386745,-0.2449331,0.36038828,-0.24392888,0.17104968,0.32166043,0.22399417,-0.856901,-0.14120895,-0.64589113,0.5626094,-0.10128845,0.29171777,0.23690906,-0.11852181,-0.6229483,-0.69875,-0.54460406,0.14912486,-0.051353756,0.014868543,0.1542445,0.016662493,-0.15393013,-0.23595744,-0.20827633,0.4554609,-0.4177122,0.027783008,0.10494564,0.45128256,-0.68909746,-0.22857997,-0.81277055,0.2538075,-0.72988796,0.3286165,-0.19026676,0.6099819,-1.3426566,0.28900614,0.2154587,-0.12463416,0.99632084,0.64659953,0.105056785,0.07494477,-0.2630857,-0.584045,-0.23257582,0.18036151,-0.6700308,-0.6946804,0.2853181,-0.5289057,0.3995111,0.327267,-0.24846527,0.4089237,0.80014074,-0.221111,0.31745306,0.35150638,0.73896396,0.24811223,-0.4996743,-0.3256391,-0.43969873,0.15120031,-0.14587855,0.13325344,-0.31239256,-0.60274357,-0.5215851,0.08323536,0.014274254,-0.5425108,-0.17140315,-0.30812567,0.006190226,0.35757262,0.035106294,-0.30781603,0.259409,-0.32146752,0.08502891,-0.2205737,0.3699782,0.3765724,-0.19126754,0.03174251,0.25081784,0.7373202,0.55865103,-0.12730694,0.031955507,-0.9433305,-0.15653118,0.21187156,0.15961836,-0.7694952,0.11636442,0.60198325,-1.0685465,0.27847534,1.0406302,-0.23005651,-0.065950625,1.1408204,0.7452796,0.14346884,-0.4466363,-0.1665851,-0.21552107,-0.6259295,-0.033540137,0.1501012,-0.3073176,0.8495612,0.48816302,-0.30896473,0.5490628,-0.12785363,0.24132772,-0.053872842,0.15457535,0.06282647,0.6657322,-0.48849672,0.67992336,-0.706181,-0.2760403,-0.01883413,0.9402526,0.36450624,-0.19082853,0.3977641,0.7304564,0.04737524,-0.029165605,-0.51043415,-0.45938694,0.03565828,0.06110319,0.6136331,1.2689663,0.5501752,0.79883516,0.35894123,0.02842876,-0.48449472,0.31448662,0.49892363,0.61468333,0.16224328,0.50949883,-0.0013799799,0.21819459,0.42896396,-0.5934483,-0.09770621,-0.22618812,0.8136729,0.46239156,0.029846603,-0.10423874,-0.24144307,0.23811778,-0.54333246,0.3272868,-0.8409755,0.9841313,0.14708267,0.266026,-0.87837493,-0.02841058,-0.620912,0.64862585,-1.1054366,0.00520167,-0.20586626,-0.32083055,-0.09808708,0.08596809,0.10997604,0.29327795,-0.2876156,-0.7557823,0.010356574,0.17652944,0.58432883,0.18145308,0.34467053,0.179504,0.5646758,-0.2389379,0.70058733,-0.1772039,0.064789124,0.24281746,0.24702121,0.08786915,-0.05288103,0.031211767,-0.30012235,-0.37874657,-0.04269397,0.4183461,-0.54163814,0.28149593,-0.24760881,-0.22386327,0.22557917,0.06665707,-0.4637392,0.8737989,-0.17940931,-0.16157524,0.67077607,0.5498546,0.07919869,0.1987881,-0.58609676,0.28239954,-0.3437398,0.06176126,0.13247982,0.6547812,0.5583598,0.42011914,0.05908306,-0.21695594,-0.3680479,0.18471149,0.31870216,-0.4337291,-0.3954156,-0.016148303,0.18816596,-0.022685982,0.2649324,0.5686066,-0.12563157,-0.48354724,-0.82068485,-1.0693216,0.45616454,-0.17497817,0.33065814,-0.4677967,-0.36599296,-0.20791636,0.68586284,-0.2610933,-0.75429285,0.5750418
